625 50
equiporealmadrid 0.015340 -0.446787 -0.432664 1.077451 -0.275396 -0.451972 0.345122 0.186893 0.263762 -0.579423 -0.318325 -0.244829 -0.103503 0.266015 -0.185140 0.241333 0.552550 0.160340 0.485089 -0.328311 0.573719 0.463104 -0.089946 0.154200 -0.353637 -0.117225 0.449896 -0.150330 -0.023384 -0.406129 0.717909 -0.263540 -0.768293 -0.604510 0.469091 0.073801 0.119712 0.027239 0.091658 -0.408717 -0.537544 0.294065 -0.152734 0.028274 0.836827 0.453224 -0.305750 0.444997 -0.262299 -0.273034
partido -0.004511 -0.402097 -0.394246 0.987479 -0.267787 -0.429711 0.326526 0.156916 0.238606 -0.532920 -0.293375 -0.213788 -0.098205 0.247341 -0.178270 0.218103 0.516711 0.145053 0.432148 -0.301984 0.511130 0.434639 -0.087832 0.149973 -0.330589 -0.120582 0.423974 -0.152870 -0.004741 -0.379253 0.666118 -0.236807 -0.706072 -0.556841 0.436091 0.081847 0.104191 0.017982 0.085728 -0.388548 -0.505690 0.275325 -0.149827 0.029336 0.775991 0.419687 -0.274930 0.413167 -0.239636 -0.252662
no 0.002814 -0.462609 -0.452195 1.133359 -0.295147 -0.491632 0.373204 0.181041 0.282690 -0.607196 -0.338917 -0.234978 -0.122601 0.280732 -0.214388 0.253296 0.578587 0.176546 0.505910 -0.351880 0.602405 0.499702 -0.108103 0.173327 -0.374222 -0.131547 0.475535 -0.163274 -0.020301 -0.431996 0.747326 -0.274454 -0.811083 -0.656648 0.507915 0.083439 0.113669 0.038919 0.113407 -0.443342 -0.577209 0.312908 -0.170685 0.020923 0.872411 0.482325 -0.310618 0.473978 -0.286353 -0.295062
equipobarcelona -0.002517 -0.502376 -0.501348 1.236763 -0.337397 -0.534214 0.408741 0.203013 0.309257 -0.657309 -0.363853 -0.256042 -0.135141 0.294201 -0.217780 0.290579 0.632970 0.195095 0.557834 -0.386201 0.654532 0.528736 -0.104247 0.189980 -0.397780 -0.143316 0.516778 -0.182813 -0.009231 -0.467717 0.827832 -0.293800 -0.867302 -0.713274 0.554208 0.093553 0.119310 0.034237 0.106463 -0.481028 -0.614351 0.345608 -0.180401 0.025565 0.968921 0.524476 -0.338662 0.514921 -0.291686 -0.315330
es 0.007057 -0.422391 -0.433042 1.056514 -0.287434 -0.452887 0.339388 0.165931 0.255486 -0.561693 -0.297506 -0.221610 -0.114330 0.257224 -0.184572 0.240220 0.547363 0.161140 0.478082 -0.322404 0.555312 0.466961 -0.087305 0.154300 -0.330484 -0.118562 0.452680 -0.161329 -0.012151 -0.397651 0.701362 -0.248450 -0.745080 -0.597964 0.467736 0.070261 0.103846 0.035593 0.093580 -0.412519 -0.527429 0.282252 -0.155753 0.028838 0.808243 0.447157 -0.301593 0.438734 -0.261987 -0.265205
se 0.006880 -0.455892 -0.458547 1.122944 -0.296094 -0.491289 0.370239 0.185237 0.287530 -0.602134 -0.335280 -0.241302 -0.109156 0.277108 -0.208973 0.253602 0.579935 0.162281 0.508175 -0.355391 0.591104 0.499629 -0.093479 0.182472 -0.358394 -0.126095 0.479813 -0.162049 -0.019578 -0.432322 0.756961 -0.280135 -0.809208 -0.639810 0.502862 0.076612 0.104564 0.036789 0.099291 -0.432116 -0.578727 0.302171 -0.171153 0.030118 0.874169 0.486573 -0.322030 0.466345 -0.284662 -0.284059
jugadorgarethbale 0.011833 -0.418157 -0.423039 1.023768 -0.278664 -0.435856 0.331333 0.177708 0.251053 -0.533443 -0.294793 -0.228971 -0.109815 0.248221 -0.188145 0.231451 0.533655 0.162838 0.459119 -0.319444 0.541574 0.432092 -0.082340 0.152868 -0.334316 -0.107108 0.430488 -0.150485 -0.005741 -0.397674 0.674305 -0.252284 -0.715528 -0.591546 0.454887 0.081839 0.097208 0.035533 0.104389 -0.389231 -0.519452 0.291820 -0.159384 0.026256 0.801145 0.449883 -0.278058 0.415995 -0.240222 -0.265350
afición -0.004363 -0.422523 -0.417631 1.020460 -0.267312 -0.426996 0.329003 0.183014 0.249944 -0.550337 -0.306803 -0.212094 -0.098593 0.261592 -0.190424 0.235651 0.517585 0.161341 0.456311 -0.320538 0.541741 0.452907 -0.092689 0.157308 -0.328924 -0.111646 0.443461 -0.157878 -0.020150 -0.385163 0.679336 -0.250964 -0.733163 -0.588253 0.455966 0.081988 0.098633 0.028474 0.092782 -0.398824 -0.510462 0.286337 -0.161123 0.025528 0.805571 0.447893 -0.292668 0.414373 -0.238039 -0.259356
por 0.009390 -0.435545 -0.445637 1.106888 -0.287983 -0.469918 0.353422 0.194776 0.269488 -0.592768 -0.315920 -0.233253 -0.107777 0.271527 -0.210499 0.262309 0.575253 0.164199 0.496748 -0.334779 0.569394 0.482891 -0.087941 0.159114 -0.360441 -0.120664 0.459826 -0.162408 -0.009630 -0.426738 0.744099 -0.272493 -0.769555 -0.617152 0.479447 0.088391 0.116398 0.033505 0.104398 -0.412259 -0.546534 0.311837 -0.175513 0.020777 0.861087 0.482094 -0.312714 0.450884 -0.277807 -0.267943
jugadorlionelmessi -0.002719 -0.470969 -0.482587 1.159326 -0.320952 -0.494499 0.365829 0.204989 0.277199 -0.603211 -0.346574 -0.247597 -0.118718 0.291492 -0.220712 0.276347 0.603393 0.175447 0.511640 -0.362600 0.617285 0.506564 -0.101692 0.179437 -0.382979 -0.126982 0.488515 -0.176826 -0.016030 -0.444250 0.779392 -0.284111 -0.821371 -0.656661 0.521404 0.087084 0.104644 0.027243 0.117247 -0.447621 -0.573928 0.321681 -0.175941 0.032965 0.890827 0.491938 -0.335720 0.488029 -0.282506 -0.293835
jugadorsergioramos 0.004578 -0.415552 -0.418539 1.022266 -0.263937 -0.429479 0.324319 0.167849 0.266531 -0.527718 -0.309376 -0.218973 -0.099597 0.235397 -0.199235 0.239947 0.528471 0.164034 0.469767 -0.302086 0.545020 0.443958 -0.089149 0.142107 -0.325054 -0.114636 0.431294 -0.162555 -0.015968 -0.392945 0.687064 -0.229557 -0.714324 -0.574608 0.457741 0.073418 0.085175 0.035852 0.107525 -0.373381 -0.510900 0.275391 -0.141421 0.029608 0.800961 0.433587 -0.289266 0.427942 -0.261309 -0.254824
copa 0.001490 -0.351129 -0.362303 0.869024 -0.237036 -0.375510 0.287577 0.145110 0.227648 -0.464145 -0.267356 -0.186196 -0.096467 0.205204 -0.161076 0.200272 0.439510 0.127344 0.398530 -0.270799 0.466361 0.389885 -0.081484 0.134365 -0.288825 -0.098148 0.356109 -0.130774 0.000465 -0.341310 0.590234 -0.198484 -0.621689 -0.487323 0.391591 0.054939 0.087228 0.032600 0.088121 -0.318573 -0.427218 0.227258 -0.120708 0.024653 0.679483 0.370237 -0.247111 0.356534 -0.224869 -0.216701
ja 0.006855 -0.356204 -0.351385 0.863779 -0.225284 -0.372946 0.275115 0.153153 0.209813 -0.449791 -0.253732 -0.186602 -0.084000 0.213582 -0.164022 0.195729 0.439528 0.128632 0.389195 -0.257827 0.451197 0.369517 -0.082730 0.122233 -0.277910 -0.098818 0.362918 -0.138741 -0.013496 -0.327825 0.564401 -0.213374 -0.606157 -0.490451 0.387481 0.066756 0.091800 0.027209 0.072639 -0.331624 -0.440714 0.236050 -0.122391 0.014925 0.669340 0.367586 -0.247505 0.366022 -0.219020 -0.223602
si 0.010401 -0.404506 -0.409263 1.000736 -0.267231 -0.421940 0.321670 0.172887 0.249617 -0.540886 -0.286917 -0.226933 -0.102775 0.245186 -0.184281 0.243585 0.507146 0.158664 0.461134 -0.315436 0.526659 0.431708 -0.089462 0.143483 -0.329493 -0.111132 0.422708 -0.148774 -0.016628 -0.386746 0.676635 -0.243673 -0.710248 -0.573462 0.452770 0.071857 0.096804 0.025650 0.088318 -0.374892 -0.498052 0.278679 -0.150144 0.026371 0.781441 0.427761 -0.289303 0.424326 -0.249984 -0.254910
pero -0.001544 -0.398816 -0.408470 1.007077 -0.262959 -0.443536 0.318852 0.164715 0.256979 -0.528261 -0.290565 -0.226357 -0.095578 0.246526 -0.193090 0.243051 0.528471 0.158293 0.446217 -0.305343 0.539116 0.443170 -0.084786 0.164913 -0.329032 -0.119526 0.423809 -0.144574 -0.013407 -0.384376 0.680738 -0.238899 -0.715116 -0.591791 0.458093 0.077702 0.099522 0.034960 0.094432 -0.393657 -0.521051 0.276712 -0.150694 0.030844 0.797124 0.441987 -0.292295 0.417159 -0.238591 -0.266179
jugadorcristianoronaldo 0.010014 -0.369344 -0.366403 0.888834 -0.232389 -0.386018 0.289778 0.143711 0.220346 -0.469720 -0.269415 -0.180468 -0.096434 0.214511 -0.160475 0.203506 0.450396 0.133969 0.387822 -0.271960 0.472174 0.385453 -0.081656 0.130919 -0.285073 -0.091767 0.374945 -0.134188 -0.000972 -0.338557 0.600187 -0.219577 -0.634606 -0.513651 0.391872 0.062193 0.078653 0.020441 0.072089 -0.341689 -0.448568 0.237317 -0.142346 0.020345 0.685070 0.390310 -0.243599 0.371191 -0.210453 -0.224865
hala 0.010177 -0.297481 -0.304808 0.752731 -0.187534 -0.323646 0.241214 0.119412 0.186596 -0.399353 -0.217047 -0.158881 -0.074275 0.187894 -0.141473 0.180252 0.392302 0.120089 0.340913 -0.223184 0.395369 0.332341 -0.064159 0.117028 -0.233886 -0.077860 0.322437 -0.101481 -0.018863 -0.287157 0.491648 -0.169973 -0.536623 -0.432061 0.335193 0.061615 0.083112 0.025156 0.073609 -0.295017 -0.384887 0.202620 -0.122103 0.027200 0.593580 0.318466 -0.219157 0.305246 -0.178414 -0.186440
sin 0.014438 -0.319383 -0.309715 0.770137 -0.207645 -0.329889 0.248790 0.139484 0.194548 -0.408972 -0.221021 -0.161621 -0.088099 0.201652 -0.134176 0.184728 0.394709 0.120299 0.336567 -0.237879 0.410169 0.325591 -0.075544 0.126567 -0.257912 -0.086431 0.323339 -0.110047 -0.005510 -0.295729 0.520129 -0.177020 -0.555457 -0.445834 0.353348 0.053101 0.086758 0.020065 0.063707 -0.307009 -0.402010 0.210896 -0.127508 0.016997 0.596869 0.342983 -0.222957 0.324076 -0.188303 -0.198400
entrenador -0.006580 -0.436916 -0.447607 1.113973 -0.295942 -0.477282 0.360123 0.178151 0.265373 -0.586736 -0.321578 -0.243840 -0.104773 0.267990 -0.209712 0.255286 0.575464 0.160864 0.485148 -0.345550 0.583358 0.479632 -0.092750 0.177587 -0.350794 -0.114265 0.473700 -0.168603 -0.003941 -0.431270 0.736524 -0.274407 -0.773802 -0.641684 0.479001 0.076379 0.116609 0.022941 0.095492 -0.431807 -0.549540 0.312723 -0.172215 0.020803 0.852184 0.484497 -0.313482 0.458145 -0.273393 -0.271344
mejor 0.013648 -0.358000 -0.370384 0.902822 -0.248982 -0.390891 0.292534 0.152484 0.211218 -0.478890 -0.264971 -0.200640 -0.090770 0.227268 -0.172243 0.211470 0.454674 0.138795 0.409378 -0.280848 0.463553 0.378014 -0.086075 0.130411 -0.288281 -0.099806 0.372723 -0.123101 -0.016730 -0.347042 0.604594 -0.207110 -0.631410 -0.519864 0.391025 0.071437 0.091923 0.030917 0.083631 -0.343846 -0.457064 0.258884 -0.136976 0.031733 0.700939 0.392191 -0.244083 0.361141 -0.210783 -0.226062
jugador 0.012038 -0.374089 -0.362443 0.903699 -0.246093 -0.393151 0.290890 0.142746 0.218552 -0.476137 -0.268136 -0.186407 -0.092666 0.217861 -0.170303 0.212258 0.456556 0.145298 0.402238 -0.272468 0.472242 0.396822 -0.085999 0.142107 -0.299363 -0.110850 0.392723 -0.146113 -0.005108 -0.343603 0.595117 -0.216144 -0.643879 -0.525227 0.396215 0.067924 0.100339 0.015914 0.089746 -0.338912 -0.465129 0.241848 -0.126268 0.027441 0.693526 0.388096 -0.263738 0.380234 -0.218938 -0.221262
equipo 0.001638 -0.401672 -0.395722 0.981529 -0.258080 -0.411599 0.329801 0.172399 0.252579 -0.531098 -0.288932 -0.220498 -0.103306 0.252195 -0.179424 0.231491 0.497235 0.138834 0.448393 -0.302123 0.524666 0.431309 -0.090302 0.141403 -0.324840 -0.117309 0.421316 -0.140315 -0.017540 -0.376962 0.668573 -0.227317 -0.707656 -0.560151 0.438646 0.082977 0.097746 0.026146 0.095777 -0.383012 -0.494478 0.281844 -0.140015 0.023600 0.779225 0.421840 -0.285588 0.414280 -0.244977 -0.247770
jugadorneymarjr 0.000673 -0.365405 -0.368328 0.907124 -0.252137 -0.385367 0.294797 0.158995 0.230789 -0.487884 -0.261771 -0.197830 -0.100190 0.216662 -0.165362 0.217965 0.463174 0.132031 0.402163 -0.282595 0.482775 0.404023 -0.085722 0.132346 -0.293205 -0.101004 0.384993 -0.145266 -0.009337 -0.342705 0.616601 -0.216591 -0.649037 -0.529164 0.405835 0.060429 0.097848 0.029381 0.089946 -0.344549 -0.454920 0.249343 -0.139994 0.018990 0.711203 0.390490 -0.249268 0.380941 -0.210011 -0.234579
campeones 0.000373 -0.255106 -0.271083 0.654510 -0.174066 -0.275758 0.208174 0.107992 0.168210 -0.341748 -0.187658 -0.140726 -0.058591 0.160401 -0.116211 0.154188 0.330961 0.095902 0.281922 -0.187196 0.337755 0.273560 -0.066915 0.105822 -0.215655 -0.082795 0.285698 -0.085449 -0.009184 -0.246989 0.430984 -0.160516 -0.449649 -0.377967 0.295072 0.060198 0.070582 0.022881 0.062315 -0.241109 -0.331705 0.188289 -0.104087 0.007682 0.517075 0.273852 -0.186888 0.261183 -0.148721 -0.158092
ya -0.007545 -0.356621 -0.375571 0.909339 -0.240873 -0.386990 0.301111 0.144290 0.226959 -0.472447 -0.269627 -0.198693 -0.100924 0.229510 -0.170124 0.214725 0.455378 0.131728 0.403481 -0.286731 0.470506 0.396569 -0.071796 0.143313 -0.293586 -0.091454 0.383559 -0.126214 -0.004846 -0.343573 0.601344 -0.209572 -0.641457 -0.508649 0.395197 0.060459 0.089802 0.017780 0.090522 -0.351281 -0.461159 0.248846 -0.135120 0.029968 0.702176 0.391355 -0.250653 0.365177 -0.216347 -0.235299
ahora -0.005002 -0.359124 -0.360978 0.886340 -0.229466 -0.366287 0.277144 0.146374 0.224860 -0.468399 -0.257569 -0.188142 -0.080823 0.215106 -0.158392 0.202713 0.447989 0.125730 0.400872 -0.264698 0.458060 0.383865 -0.071082 0.143137 -0.290703 -0.093842 0.373138 -0.129446 -0.000523 -0.346290 0.594579 -0.208502 -0.625317 -0.503981 0.398522 0.076585 0.078473 0.023360 0.076867 -0.330736 -0.444404 0.249522 -0.128240 0.021843 0.682060 0.374472 -0.250233 0.372837 -0.218702 -0.230001
jugadorikercasillas -0.004610 -0.418579 -0.407241 1.021968 -0.263896 -0.431701 0.318889 0.167681 0.253006 -0.541653 -0.289360 -0.220273 -0.093624 0.251215 -0.182733 0.240093 0.525830 0.148448 0.456706 -0.314191 0.540896 0.433277 -0.081929 0.150048 -0.324342 -0.120062 0.440861 -0.159823 -0.015253 -0.387442 0.680688 -0.244750 -0.728634 -0.591795 0.455141 0.086875 0.110482 0.026234 0.090337 -0.380084 -0.515238 0.287221 -0.154411 0.020741 0.785756 0.446131 -0.282649 0.417086 -0.249246 -0.263518
hoy 0.012110 -0.328648 -0.348786 0.844080 -0.231826 -0.360488 0.275881 0.149610 0.207721 -0.450002 -0.247327 -0.186578 -0.085932 0.203843 -0.160116 0.192791 0.428454 0.127647 0.366289 -0.250519 0.438672 0.351619 -0.071067 0.121799 -0.260260 -0.086119 0.359189 -0.122705 -0.006885 -0.326080 0.558603 -0.205575 -0.584145 -0.468512 0.363343 0.071027 0.078555 0.021807 0.068615 -0.326617 -0.415863 0.241489 -0.135606 0.027337 0.650049 0.369797 -0.234966 0.339385 -0.194721 -0.204864
grande -0.005305 -0.318948 -0.314603 0.763122 -0.196073 -0.335405 0.251043 0.135747 0.185798 -0.409589 -0.217635 -0.175662 -0.079497 0.188186 -0.131700 0.179519 0.402292 0.112082 0.336650 -0.235608 0.396377 0.325871 -0.066058 0.123588 -0.255803 -0.087699 0.332958 -0.112204 -0.013473 -0.294626 0.517669 -0.178800 -0.543540 -0.438157 0.331944 0.055598 0.077648 0.013513 0.077841 -0.297748 -0.391228 0.208070 -0.123799 0.021011 0.605805 0.333422 -0.223976 0.306870 -0.194731 -0.194907
más -0.005696 -0.397063 -0.401655 0.984930 -0.257476 -0.417671 0.323051 0.162001 0.241600 -0.514464 -0.285709 -0.209530 -0.103611 0.247281 -0.185840 0.220384 0.509824 0.156962 0.432785 -0.309339 0.509811 0.428498 -0.090898 0.149343 -0.319116 -0.100940 0.426305 -0.140685 -0.010314 -0.384958 0.650071 -0.240261 -0.691672 -0.566796 0.440693 0.067562 0.100488 0.027363 0.098148 -0.386480 -0.497260 0.280385 -0.148506 0.032198 0.763011 0.418220 -0.267519 0.408604 -0.241168 -0.259278
mas 0.004902 -0.382407 -0.367717 0.929927 -0.253562 -0.393744 0.292940 0.160066 0.231331 -0.496127 -0.261646 -0.206913 -0.097737 0.226165 -0.168604 0.223444 0.474423 0.135399 0.420437 -0.282986 0.488786 0.404611 -0.077276 0.130780 -0.303953 -0.094179 0.381658 -0.145819 -0.016331 -0.357175 0.609652 -0.215650 -0.658783 -0.516627 0.408312 0.069679 0.099859 0.024487 0.080565 -0.353091 -0.466470 0.252507 -0.129882 0.023887 0.717259 0.401002 -0.250992 0.387713 -0.217186 -0.238588
campeón -0.000022 -0.266032 -0.264398 0.658068 -0.175118 -0.282285 0.222225 0.102512 0.161668 -0.356151 -0.187244 -0.151871 -0.074496 0.162279 -0.109827 0.160550 0.346460 0.105838 0.286462 -0.199836 0.353641 0.280588 -0.063971 0.108669 -0.207117 -0.083520 0.270433 -0.103717 -0.015993 -0.254500 0.442603 -0.168127 -0.475987 -0.374660 0.303461 0.049686 0.058711 0.017430 0.069994 -0.258307 -0.333813 0.187986 -0.099154 0.025575 0.524544 0.282086 -0.187493 0.280628 -0.157901 -0.177944
porque 0.004270 -0.359340 -0.379771 0.919982 -0.252743 -0.388626 0.298401 0.149297 0.234576 -0.473391 -0.268765 -0.193697 -0.082540 0.223265 -0.166829 0.208275 0.470178 0.128002 0.411184 -0.274549 0.468774 0.395603 -0.077473 0.134572 -0.296628 -0.101548 0.387880 -0.145638 -0.014399 -0.353360 0.606949 -0.217465 -0.641736 -0.529394 0.405173 0.057890 0.081289 0.021803 0.078172 -0.350281 -0.461035 0.259945 -0.127720 0.026202 0.704175 0.398436 -0.247076 0.385702 -0.219327 -0.225324
todo 0.011698 -0.357197 -0.363815 0.886780 -0.247134 -0.382664 0.293447 0.155285 0.227498 -0.466299 -0.262531 -0.186163 -0.096406 0.225627 -0.153896 0.210113 0.461945 0.133620 0.399742 -0.270447 0.463801 0.377321 -0.076470 0.128338 -0.279061 -0.105182 0.385583 -0.135301 -0.006165 -0.341466 0.602520 -0.222981 -0.632962 -0.511111 0.389863 0.066245 0.095760 0.020874 0.083512 -0.339641 -0.455427 0.250208 -0.136322 0.023089 0.690445 0.382583 -0.240715 0.369674 -0.226413 -0.223590
gol 0.002837 -0.351916 -0.368833 0.886825 -0.245615 -0.374979 0.282437 0.157143 0.208044 -0.475313 -0.263921 -0.189968 -0.083760 0.227451 -0.150428 0.199850 0.459052 0.123206 0.398834 -0.263404 0.457326 0.376538 -0.082079 0.141672 -0.285695 -0.095928 0.366923 -0.127631 -0.013359 -0.338867 0.593520 -0.221550 -0.624918 -0.507775 0.389794 0.066041 0.081699 0.030474 0.089103 -0.329433 -0.452430 0.242867 -0.129262 0.023365 0.683038 0.383227 -0.253652 0.354238 -0.211676 -0.227824
todos 0.001869 -0.355455 -0.364085 0.894245 -0.233592 -0.369946 0.281720 0.150499 0.220148 -0.468734 -0.256456 -0.196044 -0.084390 0.227887 -0.157274 0.194432 0.462218 0.139733 0.387418 -0.261872 0.467134 0.373357 -0.083004 0.129006 -0.293973 -0.092880 0.377408 -0.123456 -0.016377 -0.348083 0.586163 -0.219324 -0.624161 -0.502053 0.386102 0.059349 0.080164 0.032077 0.072261 -0.347894 -0.458631 0.244997 -0.144057 0.030066 0.689150 0.382119 -0.251637 0.368351 -0.213261 -0.233991
jugadorjosémanuelpinto 0.002754 -0.335497 -0.338134 0.819955 -0.215076 -0.347464 0.265576 0.143266 0.211579 -0.442801 -0.236261 -0.189372 -0.077928 0.205480 -0.149912 0.186241 0.431147 0.121654 0.376808 -0.258630 0.441834 0.361393 -0.070405 0.116824 -0.276095 -0.098806 0.353907 -0.123243 -0.011637 -0.325478 0.565930 -0.207014 -0.596480 -0.482536 0.367412 0.061472 0.088307 0.024837 0.082194 -0.313900 -0.415693 0.221020 -0.123236 0.013829 0.655795 0.354221 -0.233725 0.333857 -0.198202 -0.201017
nada 0.004321 -0.311536 -0.316312 0.776377 -0.204311 -0.340228 0.244080 0.136613 0.182987 -0.403375 -0.224627 -0.173718 -0.080382 0.184931 -0.139144 0.173341 0.399877 0.113726 0.336974 -0.246822 0.396786 0.337647 -0.070420 0.123628 -0.241330 -0.095180 0.330652 -0.119959 -0.002056 -0.303727 0.508299 -0.189536 -0.544479 -0.448105 0.346259 0.059688 0.072362 0.021335 0.080013 -0.294005 -0.392899 0.219419 -0.117680 0.027659 0.598509 0.334360 -0.223950 0.312344 -0.184339 -0.206203
ver 0.000123 -0.351633 -0.357797 0.870316 -0.222386 -0.361830 0.278058 0.148269 0.208821 -0.451968 -0.248288 -0.179048 -0.097159 0.215868 -0.169132 0.204312 0.438959 0.140544 0.396262 -0.260282 0.455384 0.382446 -0.065874 0.131020 -0.270826 -0.101578 0.359316 -0.133324 -0.005171 -0.327555 0.584063 -0.199368 -0.610611 -0.486812 0.382666 0.064448 0.076853 0.015106 0.088287 -0.323852 -0.438420 0.246333 -0.123223 0.031640 0.678792 0.363235 -0.253396 0.363046 -0.214700 -0.209993
tiene -0.002353 -0.282295 -0.294971 0.707294 -0.195723 -0.308797 0.222761 0.123149 0.181871 -0.380458 -0.207494 -0.155333 -0.068286 0.174173 -0.134633 0.157513 0.354932 0.112008 0.325655 -0.217396 0.369909 0.316506 -0.059861 0.101178 -0.235863 -0.083158 0.309398 -0.111780 -0.009246 -0.276432 0.481202 -0.168813 -0.491367 -0.409210 0.320136 0.054494 0.075939 0.013526 0.066286 -0.280971 -0.366653 0.201863 -0.105139 0.011475 0.554770 0.297724 -0.205969 0.300306 -0.170592 -0.171750
va 0.003404 -0.346285 -0.345588 0.836445 -0.215667 -0.362056 0.274970 0.139378 0.214044 -0.454706 -0.251915 -0.191021 -0.091477 0.202513 -0.156492 0.190766 0.431810 0.125500 0.382377 -0.265545 0.452328 0.370987 -0.066104 0.124325 -0.266668 -0.101496 0.356031 -0.123947 -0.008571 -0.331861 0.568917 -0.201816 -0.595739 -0.475401 0.376485 0.056783 0.081076 0.018125 0.086287 -0.328220 -0.428520 0.223812 -0.120248 0.029217 0.646729 0.353132 -0.245674 0.340069 -0.211927 -0.216664
siempre -0.005829 -0.370183 -0.367336 0.924941 -0.250925 -0.388024 0.289835 0.160194 0.219909 -0.481746 -0.260486 -0.199355 -0.098172 0.225237 -0.172070 0.218917 0.466585 0.143358 0.403752 -0.277539 0.486505 0.406177 -0.071501 0.146369 -0.307213 -0.107988 0.384056 -0.133308 -0.004812 -0.354380 0.613490 -0.228832 -0.646577 -0.535083 0.400998 0.068149 0.096111 0.017191 0.076769 -0.362735 -0.466079 0.264313 -0.132336 0.033576 0.726119 0.406266 -0.266875 0.372285 -0.223017 -0.227454
ser 0.012639 -0.332414 -0.334612 0.823370 -0.212607 -0.344537 0.268694 0.133862 0.198147 -0.434949 -0.236106 -0.186734 -0.093481 0.191808 -0.159848 0.191365 0.410363 0.119097 0.365654 -0.259532 0.422063 0.357581 -0.061871 0.124213 -0.259121 -0.086066 0.348501 -0.128660 -0.004965 -0.317919 0.538142 -0.199562 -0.587013 -0.470076 0.358698 0.062750 0.083959 0.030604 0.085426 -0.306990 -0.419983 0.221395 -0.132185 0.011365 0.642069 0.360267 -0.232854 0.346234 -0.208768 -0.213677
jugadormarcbartra -0.000433 -0.315823 -0.331010 0.796041 -0.211447 -0.347633 0.260981 0.138761 0.200897 -0.427815 -0.226443 -0.165751 -0.089190 0.188672 -0.153296 0.178680 0.407661 0.120722 0.355694 -0.253098 0.414840 0.348467 -0.060912 0.130623 -0.264352 -0.081800 0.344934 -0.111421 -0.005791 -0.313455 0.522428 -0.186384 -0.566930 -0.458321 0.356598 0.069780 0.087478 0.032136 0.069565 -0.295690 -0.399046 0.222630 -0.121161 0.018505 0.613449 0.343613 -0.232455 0.333460 -0.187155 -0.196747
año -0.002841 -0.293781 -0.297821 0.720523 -0.194703 -0.317460 0.238374 0.119903 0.190566 -0.393832 -0.216890 -0.166506 -0.067983 0.175554 -0.137569 0.159793 0.366352 0.115848 0.320243 -0.218819 0.385216 0.317710 -0.070954 0.110379 -0.225713 -0.092549 0.302760 -0.099039 -0.010160 -0.272720 0.485799 -0.175890 -0.519776 -0.423424 0.316684 0.053089 0.068910 0.026244 0.070679 -0.284740 -0.367140 0.194903 -0.114155 0.010846 0.571106 0.318849 -0.201107 0.302005 -0.181856 -0.184051
vez -0.003554 -0.318144 -0.306819 0.763879 -0.196142 -0.333363 0.247248 0.119912 0.193935 -0.403026 -0.217774 -0.158605 -0.081598 0.190410 -0.138252 0.180682 0.387931 0.112984 0.337866 -0.232517 0.393255 0.326582 -0.072070 0.108918 -0.255682 -0.090831 0.331247 -0.110401 -0.014002 -0.287630 0.506369 -0.181574 -0.537783 -0.429853 0.337575 0.057448 0.077390 0.013464 0.078889 -0.289335 -0.376296 0.202947 -0.122508 0.027395 0.598951 0.330896 -0.223361 0.321451 -0.191824 -0.189004
enhorabuena 0.002594 -0.308054 -0.308410 0.745333 -0.196543 -0.306787 0.247421 0.121563 0.176875 -0.389302 -0.215920 -0.168466 -0.066014 0.179694 -0.135418 0.178761 0.384033 0.111061 0.320261 -0.230316 0.381677 0.311964 -0.055720 0.120545 -0.243686 -0.092085 0.321554 -0.115825 -0.003676 -0.292699 0.492701 -0.170786 -0.526650 -0.426524 0.317942 0.060237 0.061886 0.028941 0.060406 -0.289503 -0.376019 0.196202 -0.112478 0.013145 0.577198 0.321041 -0.209723 0.295944 -0.175392 -0.186926
bien -0.000783 -0.348938 -0.361088 0.890160 -0.242231 -0.380871 0.292474 0.150312 0.228034 -0.467438 -0.259402 -0.185868 -0.082115 0.211604 -0.167580 0.204144 0.446852 0.126164 0.402866 -0.275658 0.464276 0.384909 -0.083323 0.126429 -0.278728 -0.105005 0.370041 -0.123753 -0.009064 -0.347085 0.583223 -0.207661 -0.627004 -0.513082 0.391884 0.068062 0.078676 0.023523 0.085459 -0.348094 -0.455608 0.245675 -0.142768 0.028480 0.692381 0.386438 -0.241489 0.357633 -0.207498 -0.227434
gana 0.009446 -0.292938 -0.275231 0.706145 -0.192807 -0.292339 0.230132 0.111635 0.180906 -0.378302 -0.208665 -0.145352 -0.070542 0.167615 -0.129531 0.154015 0.350377 0.099622 0.312017 -0.210325 0.378240 0.300774 -0.065590 0.106790 -0.218789 -0.078714 0.296187 -0.098665 -0.003025 -0.265839 0.461316 -0.167352 -0.502549 -0.391374 0.310400 0.045992 0.060673 0.025155 0.065324 -0.270619 -0.348191 0.202193 -0.100521 0.016599 0.551482 0.294476 -0.202503 0.291007 -0.165803 -0.183154
final -0.000639 -0.269812 -0.267598 0.674101 -0.179862 -0.283175 0.213020 0.117523 0.162740 -0.355038 -0.204339 -0.140864 -0.066577 0.160807 -0.113282 0.161780 0.342251 0.110970 0.298880 -0.207901 0.356269 0.300076 -0.064127 0.112914 -0.223994 -0.085462 0.282663 -0.101127 -0.012905 -0.266828 0.457729 -0.155138 -0.472760 -0.387847 0.297668 0.053305 0.065395 0.024679 0.053739 -0.264703 -0.333093 0.191054 -0.108117 0.026150 0.528730 0.294501 -0.199813 0.288143 -0.161840 -0.172757
vamos 0.009923 -0.250296 -0.255784 0.607828 -0.159588 -0.266536 0.188971 0.108830 0.161770 -0.334767 -0.189127 -0.123544 -0.060141 0.150638 -0.120758 0.141881 0.305198 0.091130 0.267248 -0.185180 0.329279 0.272903 -0.046316 0.094577 -0.207902 -0.066556 0.254656 -0.084778 -0.015968 -0.242976 0.404914 -0.154839 -0.434549 -0.359377 0.273896 0.049264 0.054659 0.020716 0.047078 -0.233701 -0.306307 0.171512 -0.092918 0.021926 0.471891 0.267303 -0.177162 0.251065 -0.142954 -0.163075
solo 0.006912 -0.341604 -0.351714 0.844479 -0.233324 -0.367171 0.270179 0.139741 0.218831 -0.444766 -0.241677 -0.185112 -0.095591 0.213214 -0.150977 0.203944 0.431234 0.134242 0.385539 -0.255209 0.445831 0.370062 -0.082428 0.138220 -0.272680 -0.088146 0.362802 -0.125209 -0.002072 -0.329705 0.567684 -0.211205 -0.591918 -0.479954 0.366590 0.063423 0.082572 0.029463 0.075155 -0.327240 -0.430203 0.235724 -0.129696 0.020436 0.661432 0.361139 -0.247113 0.351482 -0.198914 -0.222692
o 0.010143 -0.290223 -0.301264 0.742246 -0.192977 -0.313504 0.233277 0.118815 0.189677 -0.389705 -0.223363 -0.157595 -0.065155 0.181588 -0.125520 0.172027 0.375029 0.117382 0.323155 -0.231381 0.390235 0.318334 -0.072118 0.115791 -0.240419 -0.079208 0.318962 -0.113684 -0.010177 -0.272809 0.479186 -0.174043 -0.522508 -0.429058 0.322344 0.052366 0.072931 0.031167 0.072919 -0.290767 -0.373393 0.212241 -0.119393 0.025847 0.579700 0.313376 -0.211837 0.309315 -0.176309 -0.185191
ganar -0.004455 -0.321648 -0.311743 0.772352 -0.212348 -0.342426 0.245230 0.121845 0.185792 -0.414357 -0.227397 -0.162566 -0.085736 0.201429 -0.152356 0.171342 0.394006 0.115081 0.356011 -0.240130 0.401892 0.342143 -0.058862 0.108842 -0.257312 -0.091927 0.327938 -0.124657 0.000181 -0.295627 0.516441 -0.196902 -0.544911 -0.452654 0.341715 0.068772 0.068926 0.020562 0.074590 -0.304725 -0.384808 0.214665 -0.118273 0.010665 0.609959 0.342288 -0.228163 0.314359 -0.194261 -0.196627
nos -0.005663 -0.360356 -0.368749 0.900153 -0.241745 -0.389449 0.289922 0.156820 0.231719 -0.468368 -0.269402 -0.200714 -0.082596 0.228773 -0.154419 0.204150 0.464147 0.128808 0.391583 -0.264261 0.466818 0.376325 -0.076936 0.137293 -0.286817 -0.094603 0.383988 -0.127009 -0.013387 -0.337832 0.596414 -0.219884 -0.619205 -0.503317 0.391534 0.075599 0.081993 0.032056 0.080856 -0.331844 -0.451799 0.248220 -0.136421 0.029481 0.695785 0.389442 -0.245174 0.369935 -0.213486 -0.226974
jugadordanialves -0.003273 -0.388434 -0.394555 0.991947 -0.263340 -0.423922 0.316373 0.171853 0.237257 -0.512043 -0.275793 -0.220278 -0.103601 0.232311 -0.185419 0.223943 0.511737 0.145640 0.441614 -0.308483 0.513478 0.419213 -0.075544 0.159082 -0.310381 -0.111274 0.423453 -0.152632 -0.002315 -0.387290 0.662529 -0.240198 -0.702578 -0.553888 0.436328 0.068932 0.105902 0.034577 0.099813 -0.371638 -0.497660 0.273860 -0.140001 0.020899 0.767073 0.415799 -0.282038 0.414211 -0.244118 -0.241194
ganado 0.008859 -0.328198 -0.333920 0.794614 -0.223320 -0.350444 0.257362 0.126085 0.200233 -0.419534 -0.226451 -0.166378 -0.087594 0.205462 -0.144290 0.181939 0.417890 0.115980 0.359817 -0.246168 0.429345 0.349954 -0.078280 0.121155 -0.253602 -0.080925 0.338524 -0.109232 -0.002107 -0.298547 0.534613 -0.186370 -0.564405 -0.457024 0.352928 0.062663 0.074673 0.023532 0.073090 -0.313680 -0.396111 0.218295 -0.122349 0.018301 0.627300 0.338596 -0.220895 0.319596 -0.190359 -0.197328
jugadorangeldimaría 0.009782 -0.349284 -0.354824 0.875131 -0.240565 -0.366163 0.281266 0.156175 0.205941 -0.468051 -0.258608 -0.177511 -0.097999 0.213183 -0.148866 0.203351 0.455079 0.131196 0.394482 -0.260810 0.455256 0.380956 -0.082062 0.138879 -0.278975 -0.102454 0.367307 -0.120520 -0.005197 -0.331152 0.569474 -0.218967 -0.618530 -0.493150 0.375440 0.059119 0.087686 0.025934 0.081062 -0.327915 -0.446041 0.232770 -0.139120 0.024451 0.672515 0.375845 -0.236920 0.355663 -0.201743 -0.210522
mundo -0.006732 -0.257942 -0.262784 0.638928 -0.176235 -0.265515 0.211924 0.112367 0.169268 -0.332467 -0.178572 -0.135667 -0.058807 0.159695 -0.128079 0.161153 0.321596 0.102733 0.279270 -0.190788 0.341799 0.282967 -0.052471 0.108021 -0.209000 -0.080551 0.280411 -0.103040 0.002952 -0.244226 0.435669 -0.145779 -0.454123 -0.369580 0.283784 0.051510 0.056891 0.028155 0.056187 -0.244420 -0.324906 0.186173 -0.089773 0.022894 0.506782 0.272941 -0.172585 0.261760 -0.148932 -0.157151
felicidades 0.002137 -0.238576 -0.257238 0.610427 -0.173588 -0.261447 0.192819 0.113098 0.146638 -0.329110 -0.175613 -0.130511 -0.051277 0.160160 -0.114635 0.144499 0.315068 0.083968 0.270746 -0.189871 0.331501 0.256710 -0.057163 0.101362 -0.202125 -0.076919 0.258756 -0.086829 -0.014813 -0.236862 0.401463 -0.141468 -0.444920 -0.348897 0.267726 0.042291 0.068855 0.022489 0.061236 -0.248657 -0.320494 0.163806 -0.095797 0.008097 0.488321 0.271144 -0.176590 0.260981 -0.140014 -0.158008
gracias 0.006335 -0.266298 -0.274849 0.649166 -0.172236 -0.288754 0.213920 0.116926 0.172009 -0.344483 -0.188538 -0.131914 -0.069289 0.154604 -0.118909 0.149205 0.335973 0.099405 0.294495 -0.205264 0.348820 0.277149 -0.047864 0.109912 -0.214105 -0.076743 0.276680 -0.097986 -0.013418 -0.247877 0.440521 -0.154360 -0.464335 -0.376361 0.288898 0.049892 0.067033 0.008732 0.065532 -0.254135 -0.325303 0.192352 -0.090340 0.006770 0.523150 0.276443 -0.187382 0.264820 -0.158253 -0.167782
hay 0.005932 -0.364584 -0.369262 0.918436 -0.242635 -0.391671 0.304850 0.160102 0.225643 -0.480624 -0.272246 -0.193469 -0.089131 0.215868 -0.175697 0.214212 0.476454 0.142840 0.401493 -0.284602 0.482734 0.395484 -0.074225 0.134430 -0.299476 -0.099089 0.390798 -0.133465 -0.009659 -0.340949 0.613766 -0.219019 -0.646662 -0.527641 0.399021 0.064791 0.098963 0.025263 0.083498 -0.359424 -0.450195 0.252364 -0.130313 0.034135 0.714763 0.383487 -0.255453 0.378046 -0.224874 -0.235154
bueno 0.001554 -0.294043 -0.302222 0.722802 -0.201219 -0.308564 0.225963 0.130592 0.181885 -0.370502 -0.198424 -0.164737 -0.078330 0.166860 -0.122903 0.175749 0.365617 0.117546 0.325063 -0.212872 0.366690 0.318799 -0.059667 0.117072 -0.237839 -0.079398 0.293440 -0.108921 0.001018 -0.268567 0.488781 -0.175705 -0.513276 -0.415719 0.317120 0.053022 0.067299 0.026275 0.064115 -0.282054 -0.366297 0.202409 -0.098727 0.021209 0.555531 0.317085 -0.200853 0.291724 -0.173826 -0.188950
fue 0.008100 -0.237729 -0.232351 0.600996 -0.163495 -0.241648 0.180320 0.102109 0.144304 -0.305510 -0.166767 -0.133775 -0.065067 0.145816 -0.104116 0.139412 0.300716 0.096309 0.271557 -0.176753 0.300839 0.245030 -0.044879 0.085967 -0.196685 -0.065685 0.252927 -0.091193 -0.013095 -0.229766 0.396395 -0.149160 -0.417043 -0.336394 0.266010 0.038367 0.062762 0.011737 0.057993 -0.227521 -0.299416 0.157034 -0.084416 0.012497 0.449447 0.256659 -0.174885 0.245908 -0.138927 -0.146768
sido -0.004870 -0.298924 -0.289189 0.746455 -0.196622 -0.312056 0.239960 0.119197 0.187992 -0.385420 -0.209492 -0.153153 -0.073925 0.185176 -0.130577 0.167567 0.368202 0.103376 0.331502 -0.233631 0.388681 0.312588 -0.067124 0.112512 -0.249667 -0.075947 0.314250 -0.105805 0.001355 -0.288011 0.499868 -0.178945 -0.523203 -0.414181 0.328454 0.056775 0.080197 0.010729 0.077181 -0.290690 -0.366683 0.199700 -0.114075 0.020226 0.585205 0.323318 -0.206367 0.306940 -0.175846 -0.193883
han -0.003841 -0.321442 -0.326172 0.821193 -0.221721 -0.353259 0.261081 0.147190 0.204503 -0.422081 -0.245290 -0.169137 -0.084307 0.194396 -0.158440 0.180656 0.411109 0.116581 0.362305 -0.256284 0.427469 0.345756 -0.067332 0.128441 -0.265269 -0.091340 0.356402 -0.130668 -0.012475 -0.317288 0.554829 -0.206184 -0.584105 -0.465313 0.370355 0.063646 0.073448 0.020230 0.080970 -0.316752 -0.416353 0.232107 -0.132233 0.018844 0.648375 0.346002 -0.231478 0.344761 -0.201495 -0.216212
son 0.011878 -0.284260 -0.283445 0.678235 -0.178151 -0.285156 0.217166 0.117256 0.176760 -0.365453 -0.201686 -0.147245 -0.070479 0.175045 -0.132702 0.154431 0.353690 0.101433 0.299561 -0.212417 0.365308 0.298530 -0.051673 0.098536 -0.219241 -0.082496 0.298672 -0.093998 -0.018537 -0.262916 0.446994 -0.168091 -0.471146 -0.381141 0.301568 0.061924 0.063726 0.026173 0.054818 -0.260536 -0.336491 0.185286 -0.104853 0.019194 0.534596 0.301095 -0.186271 0.285262 -0.168816 -0.162113
retransmisión 0.003016 -0.303772 -0.313178 0.756978 -0.196763 -0.315542 0.244615 0.139769 0.189698 -0.409884 -0.233211 -0.174412 -0.085658 0.185033 -0.129367 0.171616 0.398273 0.118590 0.345241 -0.223881 0.409538 0.329826 -0.074992 0.126640 -0.252624 -0.075463 0.321012 -0.106007 -0.009578 -0.301153 0.505380 -0.187448 -0.530419 -0.429327 0.343668 0.057939 0.074014 0.030273 0.066329 -0.290987 -0.394369 0.212596 -0.110555 0.025689 0.591370 0.326043 -0.219301 0.317187 -0.176356 -0.190465
madrid 0.004049 -0.307445 -0.310743 0.754328 -0.195502 -0.322107 0.253332 0.125709 0.189924 -0.406954 -0.216327 -0.167365 -0.081235 0.185832 -0.129808 0.182641 0.393660 0.118863 0.336153 -0.230298 0.401481 0.320046 -0.069019 0.119115 -0.235526 -0.091622 0.325136 -0.104905 -0.019049 -0.284736 0.510378 -0.188449 -0.538104 -0.421273 0.342793 0.063469 0.076660 0.028475 0.062470 -0.286744 -0.374004 0.209315 -0.106655 0.020493 0.594799 0.332289 -0.206450 0.301734 -0.183112 -0.196549
autoridades -0.005163 -0.309299 -0.328576 0.774632 -0.212705 -0.344055 0.260193 0.138855 0.202221 -0.417155 -0.236071 -0.176920 -0.072466 0.186032 -0.138312 0.173401 0.405301 0.120832 0.355947 -0.242726 0.404531 0.338218 -0.075562 0.120063 -0.261702 -0.083143 0.323650 -0.110160 -0.015174 -0.299312 0.530927 -0.188406 -0.561743 -0.450287 0.348499 0.060176 0.082248 0.023658 0.067512 -0.309745 -0.402125 0.209408 -0.126726 0.028933 0.602861 0.340813 -0.225989 0.329132 -0.196110 -0.205901
españa 0.002906 -0.334444 -0.340476 0.819143 -0.221569 -0.334982 0.268739 0.133054 0.196862 -0.427867 -0.236172 -0.177539 -0.090447 0.205884 -0.153337 0.196166 0.412445 0.128268 0.371625 -0.255854 0.433978 0.355558 -0.070640 0.121919 -0.257510 -0.080646 0.340607 -0.130505 -0.002830 -0.304966 0.532915 -0.192867 -0.579432 -0.466531 0.361279 0.058562 0.070357 0.025232 0.082555 -0.301322 -0.412578 0.222502 -0.132164 0.021290 0.637683 0.340034 -0.238508 0.324505 -0.192896 -0.207956
gran 0.011733 -0.334970 -0.347118 0.831432 -0.223577 -0.344730 0.275199 0.130917 0.202059 -0.438710 -0.251890 -0.190021 -0.077559 0.199832 -0.161103 0.192833 0.436348 0.130095 0.377925 -0.261749 0.443750 0.357443 -0.079096 0.120431 -0.269643 -0.083946 0.355484 -0.119580 -0.007163 -0.328439 0.550261 -0.199412 -0.581207 -0.470851 0.366686 0.062216 0.078782 0.013882 0.070569 -0.319521 -0.416160 0.227727 -0.135655 0.013198 0.638884 0.352797 -0.241317 0.340900 -0.198731 -0.207346
cara 0.005901 -0.206064 -0.217957 0.509312 -0.146118 -0.219811 0.173979 0.095301 0.121561 -0.261519 -0.153749 -0.110748 -0.049523 0.127855 -0.092929 0.129174 0.260952 0.067420 0.221819 -0.164916 0.268129 0.228690 -0.042844 0.075613 -0.155387 -0.050188 0.224356 -0.075192 -0.010699 -0.188512 0.352405 -0.126509 -0.364761 -0.290446 0.236296 0.046727 0.048894 0.024986 0.045552 -0.202342 -0.268948 0.142974 -0.083106 0.014399 0.402546 0.223384 -0.151603 0.214680 -0.126094 -0.139705
victoria 0.002203 -0.264194 -0.269697 0.632837 -0.174036 -0.282006 0.201642 0.097897 0.165079 -0.342817 -0.180649 -0.128589 -0.059112 0.160358 -0.124120 0.143335 0.333858 0.097086 0.279232 -0.191826 0.343675 0.286852 -0.060592 0.087653 -0.212936 -0.074261 0.281160 -0.096751 -0.000690 -0.249360 0.423404 -0.152307 -0.446316 -0.374412 0.286628 0.048251 0.063440 0.008099 0.055803 -0.245916 -0.324284 0.173529 -0.106695 0.013048 0.507915 0.272287 -0.185288 0.268981 -0.163907 -0.156023
menos 0.003942 -0.254796 -0.267503 0.635887 -0.160757 -0.271088 0.210399 0.101058 0.155129 -0.340345 -0.185239 -0.132856 -0.068500 0.150817 -0.123196 0.144287 0.331649 0.104315 0.279886 -0.191341 0.324498 0.280945 -0.064151 0.103134 -0.205412 -0.065086 0.260355 -0.098296 -0.003277 -0.246210 0.423452 -0.147513 -0.452236 -0.365774 0.270873 0.046506 0.063262 0.010396 0.058950 -0.235384 -0.319583 0.178053 -0.088438 0.010234 0.503342 0.278536 -0.169503 0.256448 -0.161961 -0.159313
mucho 0.005055 -0.351182 -0.339320 0.846980 -0.224000 -0.362175 0.280968 0.145424 0.204569 -0.443894 -0.246705 -0.182826 -0.093560 0.216380 -0.157186 0.193266 0.433169 0.131196 0.370342 -0.259134 0.440575 0.375982 -0.070070 0.126815 -0.285381 -0.105385 0.359397 -0.117422 -0.001323 -0.327992 0.573838 -0.201508 -0.608103 -0.480028 0.367867 0.066899 0.077865 0.018014 0.087383 -0.333409 -0.432433 0.225862 -0.133347 0.023244 0.672895 0.373994 -0.239987 0.351472 -0.212851 -0.224491
era -0.000762 -0.293256 -0.289038 0.714709 -0.198663 -0.308942 0.232461 0.114617 0.179779 -0.378101 -0.214454 -0.155552 -0.077052 0.178593 -0.124310 0.165680 0.376522 0.099838 0.327470 -0.223373 0.381412 0.311504 -0.055493 0.108636 -0.226016 -0.089045 0.295084 -0.111063 -0.008966 -0.279091 0.487674 -0.168800 -0.501945 -0.418177 0.318375 0.047361 0.076490 0.023088 0.063654 -0.268518 -0.351956 0.194925 -0.113794 0.011343 0.554318 0.317210 -0.199588 0.297064 -0.165194 -0.185799
favor -0.002643 -0.192226 -0.204713 0.496019 -0.122754 -0.205647 0.159705 0.075860 0.122164 -0.253876 -0.149445 -0.108812 -0.053193 0.115499 -0.085611 0.123950 0.257335 0.067899 0.223572 -0.149168 0.266487 0.219782 -0.052307 0.070429 -0.159426 -0.061256 0.201421 -0.072230 -0.004635 -0.181189 0.327512 -0.113333 -0.357890 -0.281771 0.209136 0.028034 0.050554 0.006113 0.047319 -0.196799 -0.256984 0.129655 -0.064069 0.006839 0.380515 0.201824 -0.137306 0.209685 -0.129761 -0.129821
rey -0.005542 -0.264495 -0.256933 0.638193 -0.157728 -0.271892 0.196306 0.111775 0.163406 -0.338065 -0.189378 -0.146476 -0.071000 0.155724 -0.111281 0.142472 0.331917 0.092950 0.282526 -0.189742 0.342428 0.283643 -0.064163 0.091994 -0.203923 -0.076055 0.261503 -0.090237 -0.013992 -0.239423 0.420189 -0.154436 -0.456202 -0.360535 0.290358 0.052410 0.059649 0.010397 0.062437 -0.241412 -0.323656 0.178684 -0.086747 0.015151 0.496530 0.265635 -0.186126 0.256215 -0.162104 -0.167286
puede 0.003557 -0.238211 -0.243309 0.606927 -0.150575 -0.250535 0.197888 0.105501 0.141378 -0.313686 -0.179868 -0.127204 -0.065981 0.140204 -0.112375 0.145257 0.308889 0.085007 0.267749 -0.189483 0.325544 0.268143 -0.059949 0.091724 -0.187662 -0.076160 0.253091 -0.095712 -0.003618 -0.219982 0.401813 -0.146679 -0.429983 -0.349523 0.263471 0.041509 0.051275 0.014118 0.061282 -0.220495 -0.304887 0.156012 -0.089349 0.007879 0.474869 0.247826 -0.159357 0.250525 -0.149109 -0.145436
está 0.007128 -0.314381 -0.323816 0.763932 -0.206904 -0.323667 0.250218 0.135366 0.183397 -0.394451 -0.227502 -0.158331 -0.081386 0.180987 -0.149633 0.175184 0.391007 0.113862 0.341023 -0.225736 0.400616 0.331296 -0.062184 0.116591 -0.252671 -0.092380 0.322187 -0.114445 -0.002413 -0.292276 0.520128 -0.180141 -0.545727 -0.437091 0.329253 0.052863 0.065506 0.014456 0.072008 -0.298866 -0.381695 0.219366 -0.121201 0.022646 0.585015 0.322735 -0.210651 0.313111 -0.195112 -0.190844
golazo -0.002625 -0.229080 -0.216870 0.549092 -0.148565 -0.239112 0.172350 0.085315 0.145316 -0.297939 -0.161988 -0.120045 -0.058130 0.138548 -0.091062 0.133896 0.288547 0.080168 0.251519 -0.167717 0.281663 0.239651 -0.050173 0.076930 -0.169018 -0.070260 0.233656 -0.089625 -0.004636 -0.221001 0.365731 -0.129235 -0.397672 -0.312102 0.241918 0.050128 0.059026 0.008379 0.043073 -0.211965 -0.272906 0.146248 -0.076337 0.007579 0.425411 0.243652 -0.154823 0.219746 -0.138513 -0.131542
da -0.004765 -0.275640 -0.289800 0.704842 -0.193830 -0.307790 0.235481 0.115988 0.166893 -0.374818 -0.206786 -0.155189 -0.078706 0.181325 -0.129499 0.155490 0.365574 0.095006 0.317250 -0.209559 0.357021 0.311198 -0.064519 0.102568 -0.216466 -0.073449 0.302756 -0.100618 -0.001665 -0.265162 0.465596 -0.157520 -0.499623 -0.395423 0.302418 0.058515 0.069643 0.015817 0.058204 -0.272819 -0.346234 0.195865 -0.113205 0.027944 0.545274 0.289104 -0.204731 0.293368 -0.172262 -0.185550
jugadorisco 0.010689 -0.305956 -0.309499 0.769524 -0.199217 -0.319906 0.240800 0.120965 0.186894 -0.412072 -0.220961 -0.159004 -0.073800 0.194776 -0.132075 0.181788 0.392021 0.109420 0.338182 -0.241005 0.402333 0.333089 -0.057367 0.108889 -0.256408 -0.075794 0.327183 -0.114340 -0.016948 -0.302211 0.517856 -0.184078 -0.532248 -0.442572 0.339221 0.058132 0.074727 0.028714 0.070480 -0.290093 -0.383350 0.205661 -0.121673 0.021732 0.607618 0.321764 -0.220403 0.320383 -0.176567 -0.191505
queda -0.001802 -0.246225 -0.247643 0.605410 -0.159672 -0.254140 0.191018 0.101294 0.159803 -0.328696 -0.170583 -0.127690 -0.057672 0.155864 -0.105996 0.139260 0.315153 0.097073 0.261289 -0.197700 0.328671 0.256915 -0.061181 0.087378 -0.195829 -0.071263 0.266892 -0.085374 0.002427 -0.244557 0.408800 -0.147676 -0.427102 -0.354592 0.260583 0.051683 0.069180 0.014704 0.056099 -0.235392 -0.317788 0.164107 -0.080839 0.009381 0.482202 0.267047 -0.173179 0.244612 -0.141731 -0.149978
juega 0.011377 -0.227196 -0.240557 0.566301 -0.155608 -0.236063 0.177380 0.096590 0.138000 -0.303190 -0.168516 -0.114041 -0.052883 0.149022 -0.111374 0.129143 0.296076 0.093485 0.246195 -0.166664 0.305747 0.237900 -0.045781 0.080219 -0.178732 -0.063128 0.248804 -0.091270 -0.007193 -0.219305 0.374714 -0.133885 -0.411145 -0.321921 0.248452 0.038850 0.053927 0.022371 0.051117 -0.218228 -0.286061 0.159733 -0.079081 0.024530 0.436101 0.237033 -0.150515 0.229755 -0.130218 -0.153993
campeon 0.004018 -0.140772 -0.148362 0.337577 -0.083321 -0.155325 0.109197 0.057295 0.095127 -0.176999 -0.101192 -0.073317 -0.034075 0.080584 -0.065610 0.086328 0.172863 0.054297 0.161791 -0.104424 0.178269 0.151738 -0.034769 0.046693 -0.113996 -0.047495 0.137057 -0.058930 -0.004846 -0.132317 0.229326 -0.074929 -0.248126 -0.187023 0.152735 0.033684 0.023951 0.016051 0.025171 -0.130633 -0.177400 0.089613 -0.054193 0.000739 0.266898 0.144675 -0.087783 0.143710 -0.092600 -0.086857
mundial 0.008825 -0.243145 -0.253493 0.624587 -0.160176 -0.271033 0.199268 0.106525 0.155981 -0.328723 -0.176165 -0.140447 -0.068348 0.150395 -0.106768 0.139327 0.315159 0.089192 0.277095 -0.184176 0.331307 0.261602 -0.056098 0.084462 -0.205618 -0.076782 0.261540 -0.086387 -0.007518 -0.236557 0.402954 -0.156437 -0.427050 -0.360975 0.267678 0.048382 0.056241 0.015185 0.058571 -0.238223 -0.308480 0.169602 -0.086703 0.013024 0.471025 0.269341 -0.181771 0.246970 -0.152674 -0.156782
hecho 0.010666 -0.212666 -0.221563 0.518478 -0.141230 -0.217916 0.167639 0.094043 0.131099 -0.270995 -0.149810 -0.106289 -0.051338 0.120533 -0.100739 0.115984 0.277492 0.080189 0.239022 -0.164983 0.281648 0.220290 -0.051557 0.071371 -0.165530 -0.063700 0.223096 -0.074341 -0.006280 -0.206107 0.360142 -0.131784 -0.362531 -0.303582 0.237557 0.031030 0.041194 0.013663 0.050666 -0.198327 -0.267790 0.149415 -0.077793 0.005585 0.410325 0.221212 -0.152490 0.206551 -0.118909 -0.141377
puta 0.009420 -0.274860 -0.275094 0.690488 -0.184581 -0.297042 0.216009 0.109183 0.182677 -0.360908 -0.197434 -0.143960 -0.067550 0.163320 -0.136806 0.162077 0.357480 0.106080 0.315579 -0.209837 0.371954 0.295546 -0.056298 0.108251 -0.232020 -0.073186 0.288367 -0.107202 -0.004654 -0.265683 0.473966 -0.169472 -0.489604 -0.400980 0.314179 0.057069 0.069728 0.014002 0.068688 -0.258159 -0.355219 0.186620 -0.102520 0.019156 0.543431 0.299185 -0.189741 0.279944 -0.172020 -0.182354
tan 0.001971 -0.241914 -0.241472 0.614159 -0.164741 -0.271254 0.200201 0.096462 0.155026 -0.322457 -0.176914 -0.135816 -0.059018 0.142829 -0.109164 0.151068 0.306109 0.081909 0.276006 -0.182778 0.314928 0.275466 -0.058925 0.098624 -0.193215 -0.074971 0.268943 -0.099974 0.000507 -0.242132 0.409977 -0.149720 -0.432405 -0.354495 0.278955 0.041473 0.061111 0.024813 0.063671 -0.231609 -0.313473 0.160867 -0.097119 0.006235 0.470952 0.266871 -0.165420 0.244656 -0.141675 -0.147069
den -0.009880 -0.121911 -0.129612 0.300352 -0.084571 -0.133151 0.106818 0.049194 0.085786 -0.165788 -0.099478 -0.075993 -0.024986 0.084180 -0.064931 0.077653 0.150905 0.050976 0.141373 -0.097981 0.153828 0.124826 -0.029696 0.034757 -0.105147 -0.036549 0.138862 -0.054629 0.004267 -0.119915 0.196454 -0.072657 -0.220592 -0.182179 0.128348 0.031059 0.022598 0.005902 0.020461 -0.112322 -0.158286 0.080587 -0.034939 0.001647 0.239403 0.133019 -0.096734 0.129176 -0.068416 -0.078678
palo 0.009818 -0.241072 -0.254342 0.621365 -0.161571 -0.270850 0.187949 0.100319 0.156587 -0.314145 -0.174947 -0.127138 -0.059262 0.161641 -0.118205 0.146775 0.309800 0.095289 0.273044 -0.179860 0.328285 0.276244 -0.054651 0.103145 -0.188911 -0.061409 0.263271 -0.094437 -0.013516 -0.241565 0.412349 -0.139766 -0.442922 -0.358624 0.272985 0.049542 0.066184 0.012478 0.065114 -0.235063 -0.306613 0.177193 -0.085534 0.022556 0.478362 0.269577 -0.165400 0.261406 -0.147920 -0.161386
creo 0.008621 -0.204371 -0.209710 0.509509 -0.140381 -0.216679 0.161414 0.091740 0.123741 -0.256922 -0.146568 -0.102893 -0.042006 0.128855 -0.088267 0.124723 0.251404 0.066916 0.229101 -0.156988 0.267986 0.215380 -0.037808 0.083194 -0.163418 -0.048179 0.211110 -0.073879 0.001838 -0.198303 0.345510 -0.127586 -0.346824 -0.297381 0.216909 0.029271 0.054635 0.012651 0.055569 -0.202252 -0.252248 0.141799 -0.066664 0.006959 0.385102 0.207903 -0.137506 0.211945 -0.129955 -0.130842
decir 0.002049 -0.264830 -0.272763 0.657902 -0.168984 -0.279518 0.213863 0.099553 0.161956 -0.350113 -0.192708 -0.149992 -0.055649 0.167388 -0.109938 0.146999 0.341696 0.090257 0.285990 -0.207174 0.340735 0.283997 -0.047876 0.090945 -0.206424 -0.080297 0.278638 -0.091545 0.001656 -0.246270 0.435506 -0.152639 -0.459869 -0.380680 0.288547 0.054721 0.068707 0.025190 0.068760 -0.242264 -0.333031 0.175553 -0.101939 0.024039 0.508957 0.279033 -0.191826 0.265406 -0.163448 -0.159979
mierda -0.001094 -0.214087 -0.217973 0.517249 -0.144410 -0.214606 0.159619 0.089916 0.130134 -0.260912 -0.146726 -0.110342 -0.045658 0.116362 -0.085272 0.124043 0.256592 0.075948 0.225736 -0.156714 0.276216 0.224205 -0.040327 0.072902 -0.172092 -0.053451 0.211687 -0.076304 -0.010296 -0.201266 0.332565 -0.120258 -0.354195 -0.289963 0.217276 0.047472 0.047387 0.019615 0.046624 -0.187968 -0.249626 0.135886 -0.072496 0.005898 0.400985 0.225945 -0.144829 0.220340 -0.116680 -0.122940
voy 0.002709 -0.234469 -0.245340 0.620350 -0.162219 -0.260682 0.197210 0.098104 0.147316 -0.332312 -0.185481 -0.139632 -0.061097 0.142694 -0.122473 0.140201 0.314921 0.087000 0.263654 -0.186318 0.314372 0.269794 -0.042084 0.100166 -0.197534 -0.059510 0.258101 -0.102621 -0.001602 -0.233674 0.418732 -0.152203 -0.435163 -0.343740 0.277776 0.047691 0.061770 0.017239 0.053714 -0.225031 -0.310542 0.168899 -0.083788 0.018427 0.484480 0.264726 -0.175008 0.248305 -0.150235 -0.156673
medalla -0.003311 -0.244839 -0.246560 0.630658 -0.175078 -0.266132 0.200128 0.110092 0.160982 -0.333764 -0.179885 -0.137376 -0.065226 0.144495 -0.120821 0.153214 0.326993 0.097740 0.269113 -0.194636 0.325786 0.260773 -0.057220 0.099754 -0.207497 -0.066820 0.256080 -0.096441 -0.014037 -0.232967 0.422777 -0.147900 -0.437957 -0.348279 0.283719 0.040973 0.056717 0.016509 0.061346 -0.232824 -0.313438 0.170128 -0.096633 0.023381 0.483287 0.259119 -0.168264 0.259531 -0.152566 -0.152551
ole 0.010635 -0.197680 -0.213451 0.495516 -0.122891 -0.205426 0.164384 0.090461 0.129304 -0.268441 -0.144828 -0.118088 -0.048941 0.117277 -0.090107 0.118150 0.248544 0.083237 0.227540 -0.160813 0.264044 0.227694 -0.036693 0.079302 -0.171701 -0.049416 0.221765 -0.073854 0.003228 -0.184806 0.330195 -0.119608 -0.363774 -0.278971 0.225098 0.029742 0.049823 0.023750 0.051282 -0.193226 -0.246083 0.138424 -0.082671 0.004491 0.397814 0.215811 -0.132316 0.202003 -0.117638 -0.132538
hace -0.001575 -0.222701 -0.221228 0.533970 -0.149073 -0.229330 0.169050 0.097448 0.126859 -0.283907 -0.154965 -0.122561 -0.054393 0.121140 -0.099515 0.129410 0.266943 0.074600 0.234206 -0.173344 0.277189 0.238915 -0.051480 0.072850 -0.177059 -0.064710 0.232492 -0.084318 -0.003317 -0.213187 0.351709 -0.132868 -0.377959 -0.305241 0.235155 0.045825 0.053240 0.015168 0.042397 -0.200927 -0.275768 0.152286 -0.070840 0.009137 0.409481 0.227587 -0.151294 0.216591 -0.136837 -0.134114
temporada -0.002824 -0.270718 -0.283271 0.672661 -0.185240 -0.296434 0.226464 0.123003 0.176525 -0.364109 -0.201214 -0.146285 -0.077704 0.176205 -0.119066 0.165078 0.340845 0.098576 0.296415 -0.205164 0.364897 0.302559 -0.050432 0.113476 -0.211742 -0.068501 0.281133 -0.110703 -0.011478 -0.270419 0.445556 -0.169886 -0.481909 -0.393512 0.297913 0.057016 0.072824 0.015346 0.068507 -0.272071 -0.351744 0.190910 -0.112892 0.013707 0.530929 0.297240 -0.189424 0.285671 -0.172170 -0.180216
vaya 0.008170 -0.222367 -0.236549 0.570822 -0.157939 -0.239743 0.174162 0.094486 0.150698 -0.289745 -0.161739 -0.128813 -0.066702 0.134905 -0.095832 0.125391 0.289154 0.080103 0.246011 -0.179575 0.298626 0.249334 -0.044138 0.085288 -0.185145 -0.062047 0.251025 -0.088960 -0.013764 -0.214555 0.384364 -0.141548 -0.400528 -0.333068 0.251638 0.043647 0.048453 0.017122 0.047170 -0.225584 -0.289241 0.153342 -0.089568 0.005789 0.449384 0.250004 -0.169166 0.238486 -0.137875 -0.154707
estaba 0.003576 -0.228531 -0.239674 0.582295 -0.159821 -0.255051 0.186577 0.091482 0.140073 -0.313659 -0.178347 -0.123747 -0.065101 0.153488 -0.116228 0.143977 0.308288 0.082400 0.264018 -0.181470 0.314972 0.248841 -0.052043 0.086468 -0.191595 -0.056857 0.259497 -0.081375 0.000671 -0.217158 0.398392 -0.131055 -0.420797 -0.341725 0.255327 0.045249 0.060372 0.022178 0.052192 -0.233640 -0.290507 0.166498 -0.097606 0.010348 0.449523 0.251628 -0.164683 0.238570 -0.150309 -0.147960
quien -0.002464 -0.253135 -0.259867 0.627705 -0.160357 -0.263060 0.210902 0.095916 0.147831 -0.338040 -0.189639 -0.139029 -0.061563 0.163399 -0.110806 0.148574 0.320927 0.094314 0.283640 -0.196866 0.333045 0.279142 -0.055856 0.089482 -0.195189 -0.075090 0.254049 -0.087468 -0.008459 -0.233732 0.419576 -0.155139 -0.447168 -0.347368 0.284247 0.051497 0.056274 0.010413 0.050987 -0.229159 -0.316880 0.182010 -0.090460 0.008096 0.495061 0.269175 -0.179342 0.251524 -0.150996 -0.156697
título -0.001962 -0.264193 -0.263392 0.637055 -0.177427 -0.281437 0.204765 0.117693 0.154158 -0.338266 -0.188532 -0.150027 -0.074474 0.151558 -0.113055 0.152031 0.339845 0.107585 0.286341 -0.195700 0.349002 0.287343 -0.066220 0.101692 -0.203853 -0.077553 0.282490 -0.098230 -0.011244 -0.239037 0.435230 -0.156510 -0.460104 -0.363395 0.279965 0.058924 0.061226 0.011918 0.050262 -0.255846 -0.320863 0.187673 -0.087924 0.019635 0.501981 0.275425 -0.175565 0.273148 -0.160941 -0.157004
mal 0.004211 -0.245518 -0.246828 0.620624 -0.166390 -0.263480 0.194509 0.109231 0.153170 -0.318843 -0.189751 -0.141793 -0.055158 0.147594 -0.115025 0.143302 0.323491 0.094468 0.283962 -0.192576 0.318808 0.261684 -0.047833 0.099855 -0.202940 -0.072282 0.260769 -0.094034 -0.010502 -0.237665 0.400093 -0.147871 -0.443632 -0.343535 0.270269 0.045611 0.051263 0.025027 0.065328 -0.235482 -0.319512 0.167901 -0.087507 0.022796 0.481612 0.258024 -0.163329 0.258484 -0.152653 -0.144970
falta 0.009065 -0.264638 -0.270353 0.684258 -0.189724 -0.290859 0.214962 0.120333 0.164380 -0.367160 -0.201926 -0.145539 -0.071475 0.160148 -0.120062 0.155912 0.339148 0.109588 0.310812 -0.200584 0.361757 0.301418 -0.059338 0.107251 -0.228661 -0.077827 0.284697 -0.111235 -0.010075 -0.250611 0.459433 -0.169233 -0.476741 -0.386529 0.301808 0.043659 0.066373 0.016582 0.058033 -0.253996 -0.333156 0.183904 -0.107098 0.025789 0.521433 0.296595 -0.181899 0.270979 -0.156210 -0.162793
amo 0.009601 -0.216776 -0.216261 0.559014 -0.148523 -0.230479 0.181275 0.082894 0.144875 -0.291987 -0.164856 -0.128577 -0.062267 0.141810 -0.109591 0.133707 0.280667 0.072510 0.243015 -0.172318 0.293765 0.246622 -0.043417 0.080188 -0.169106 -0.052980 0.243313 -0.077777 0.000985 -0.211795 0.370310 -0.141528 -0.379383 -0.307603 0.244522 0.041870 0.054745 0.020481 0.058162 -0.201566 -0.283251 0.152071 -0.080837 0.007248 0.437996 0.245514 -0.154188 0.222427 -0.137395 -0.141237
bandera -0.004718 -0.274113 -0.269416 0.668967 -0.185947 -0.291284 0.210715 0.115281 0.165451 -0.364697 -0.204542 -0.156103 -0.067343 0.174922 -0.135002 0.149797 0.341801 0.106479 0.298189 -0.213656 0.351595 0.297870 -0.058765 0.107792 -0.228882 -0.085277 0.293339 -0.109059 -0.001518 -0.253359 0.440536 -0.154629 -0.486320 -0.385042 0.293355 0.049727 0.064533 0.018583 0.068929 -0.247957 -0.347435 0.194168 -0.092642 0.019395 0.536345 0.291361 -0.181258 0.281111 -0.171536 -0.176835
quiero 0.002597 -0.152339 -0.153601 0.388581 -0.096985 -0.165291 0.121076 0.071517 0.096495 -0.198309 -0.103226 -0.091592 -0.042546 0.093103 -0.061600 0.084694 0.200174 0.051265 0.164751 -0.115442 0.193174 0.174583 -0.028825 0.055703 -0.129825 -0.036415 0.164711 -0.056925 -0.012514 -0.152719 0.260079 -0.086485 -0.263118 -0.218052 0.161043 0.033332 0.043819 0.019294 0.034465 -0.152699 -0.190322 0.107806 -0.058080 0.013390 0.302420 0.167100 -0.104714 0.167390 -0.099015 -0.091693
campo 0.006531 -0.252946 -0.269282 0.644342 -0.170182 -0.265808 0.214145 0.113429 0.153962 -0.345274 -0.184599 -0.147337 -0.060781 0.153187 -0.114523 0.154242 0.326260 0.092313 0.285024 -0.195393 0.329912 0.273485 -0.048307 0.107817 -0.208903 -0.063670 0.267173 -0.097105 -0.014117 -0.245763 0.426433 -0.156469 -0.451109 -0.376607 0.286529 0.058173 0.071366 0.013663 0.065874 -0.237929 -0.320919 0.175018 -0.104649 0.014208 0.509710 0.266953 -0.180926 0.265652 -0.160395 -0.162972
pasa 0.001192 -0.183604 -0.180577 0.457396 -0.115024 -0.189340 0.141999 0.070621 0.113289 -0.238608 -0.129590 -0.103736 -0.044001 0.122136 -0.077176 0.106702 0.229508 0.064152 0.197607 -0.139569 0.237165 0.199586 -0.034567 0.075200 -0.156665 -0.059816 0.206462 -0.067414 -0.005469 -0.173112 0.310598 -0.111035 -0.327615 -0.261202 0.196798 0.027142 0.049829 0.011302 0.036925 -0.171895 -0.242226 0.132079 -0.070474 0.018646 0.357966 0.194750 -0.123034 0.201221 -0.113968 -0.114997
fin 0.007487 -0.210474 -0.198699 0.509458 -0.132272 -0.211471 0.171654 0.082095 0.133194 -0.275914 -0.152626 -0.104381 -0.061477 0.117203 -0.094883 0.112169 0.260258 0.072558 0.221401 -0.165261 0.276668 0.220075 -0.048891 0.078552 -0.165273 -0.060286 0.217774 -0.084819 -0.008388 -0.196070 0.347400 -0.124082 -0.368170 -0.301568 0.229793 0.034944 0.047007 0.012208 0.051055 -0.204453 -0.259606 0.148953 -0.067625 0.005973 0.406499 0.226344 -0.138389 0.213725 -0.122500 -0.120631
mismo -0.000282 -0.167911 -0.183309 0.426503 -0.121642 -0.180554 0.142770 0.071517 0.101857 -0.217547 -0.124696 -0.086792 -0.043755 0.108891 -0.076571 0.106072 0.224654 0.064088 0.187836 -0.139350 0.217704 0.180355 -0.038067 0.062425 -0.133377 -0.038284 0.183966 -0.068971 -0.012713 -0.154999 0.293037 -0.107101 -0.312875 -0.253075 0.192235 0.034798 0.050292 0.022164 0.040655 -0.158050 -0.216939 0.112830 -0.059440 0.016857 0.341878 0.188481 -0.123516 0.186003 -0.109137 -0.106281
juego -0.000544 -0.215473 -0.213475 0.520378 -0.131922 -0.219500 0.168186 0.081453 0.137936 -0.275502 -0.160115 -0.121860 -0.053660 0.132973 -0.088850 0.125890 0.268261 0.075189 0.223056 -0.161128 0.278375 0.233998 -0.043972 0.081336 -0.170018 -0.066740 0.222879 -0.078753 -0.011549 -0.195380 0.353239 -0.129506 -0.360353 -0.289139 0.235590 0.031848 0.044350 0.013143 0.048076 -0.197245 -0.266868 0.143357 -0.077401 0.006826 0.404798 0.222483 -0.145586 0.206667 -0.131933 -0.141100
fuera 0.001125 -0.217749 -0.227786 0.551023 -0.148753 -0.238682 0.187355 0.095394 0.135602 -0.283311 -0.164102 -0.118906 -0.058953 0.140217 -0.110060 0.130532 0.290491 0.092608 0.254256 -0.159591 0.298697 0.233887 -0.053109 0.085615 -0.177536 -0.051655 0.233722 -0.080397 -0.010388 -0.219129 0.367751 -0.123850 -0.383048 -0.313047 0.250900 0.049047 0.045271 0.011586 0.045780 -0.211122 -0.269884 0.144908 -0.073279 0.004672 0.438385 0.241600 -0.150047 0.226963 -0.123524 -0.147481
titulo -0.000751 -0.234386 -0.240545 0.603206 -0.150662 -0.249051 0.187138 0.092603 0.155876 -0.305298 -0.180619 -0.132007 -0.062858 0.151461 -0.112828 0.129223 0.314960 0.091493 0.268402 -0.187194 0.314014 0.258145 -0.051992 0.086525 -0.185383 -0.073187 0.248344 -0.092046 -0.007266 -0.236964 0.393992 -0.142010 -0.422776 -0.342249 0.265405 0.047198 0.053432 0.011872 0.058188 -0.233501 -0.310114 0.164650 -0.098483 0.009098 0.468166 0.263380 -0.168447 0.241831 -0.142975 -0.147773
jugado 0.001532 -0.200256 -0.192923 0.477196 -0.132449 -0.205740 0.159470 0.075447 0.125211 -0.258534 -0.130276 -0.103416 -0.042398 0.123857 -0.089247 0.105448 0.250372 0.065065 0.202161 -0.150634 0.256903 0.207099 -0.044727 0.075760 -0.152095 -0.062964 0.197194 -0.075394 -0.005406 -0.191781 0.308066 -0.113845 -0.337574 -0.271803 0.209128 0.037877 0.036809 0.009682 0.050529 -0.176236 -0.247516 0.125542 -0.073994 0.015204 0.369006 0.196031 -0.135881 0.200330 -0.121509 -0.130412
tanto -0.004717 -0.205100 -0.204898 0.498496 -0.135358 -0.207567 0.163288 0.089998 0.124384 -0.262638 -0.135665 -0.101251 -0.042673 0.113358 -0.084136 0.108764 0.249462 0.080177 0.214038 -0.146814 0.259663 0.219792 -0.050271 0.082507 -0.169137 -0.060314 0.218154 -0.067442 0.002263 -0.194668 0.340697 -0.127543 -0.347044 -0.295432 0.211408 0.035305 0.048369 0.023117 0.045173 -0.190483 -0.259400 0.147344 -0.067750 0.011992 0.383696 0.220083 -0.136127 0.214352 -0.130869 -0.130789
pa 0.003123 -0.191543 -0.201075 0.482888 -0.133943 -0.206555 0.157194 0.082924 0.113757 -0.262985 -0.146032 -0.105629 -0.055194 0.112722 -0.083404 0.120605 0.242216 0.079605 0.228374 -0.159110 0.249889 0.212308 -0.037409 0.069836 -0.163199 -0.049141 0.204004 -0.072472 -0.007914 -0.190534 0.328354 -0.107790 -0.337624 -0.275262 0.219955 0.036295 0.047621 0.020225 0.044659 -0.177770 -0.256328 0.135832 -0.076755 0.007417 0.383169 0.217547 -0.143362 0.196995 -0.114891 -0.121092
otro 0.002682 -0.212573 -0.218429 0.542298 -0.148229 -0.223773 0.185282 0.097100 0.131140 -0.293700 -0.168153 -0.124055 -0.064241 0.134745 -0.101714 0.136694 0.272674 0.091691 0.243916 -0.171641 0.293164 0.234838 -0.055766 0.086903 -0.180108 -0.052384 0.232427 -0.081845 -0.006661 -0.216421 0.372650 -0.125193 -0.378398 -0.317816 0.247259 0.050513 0.054921 0.022735 0.049266 -0.213450 -0.274521 0.158622 -0.079521 0.022871 0.417146 0.228588 -0.156573 0.219753 -0.130186 -0.131318
años 0.007292 -0.204114 -0.205699 0.498731 -0.134145 -0.205454 0.155563 0.085326 0.119511 -0.259725 -0.143944 -0.099433 -0.056999 0.118157 -0.081883 0.104940 0.245198 0.065998 0.218206 -0.158288 0.257017 0.215934 -0.033745 0.072993 -0.166815 -0.063586 0.211189 -0.068243 -0.009747 -0.196426 0.334160 -0.110498 -0.357427 -0.276083 0.214280 0.042052 0.057560 0.008563 0.043011 -0.194591 -0.252953 0.127268 -0.080569 0.011689 0.387259 0.207006 -0.139461 0.207222 -0.114826 -0.122217
semana 0.010642 -0.229406 -0.228289 0.567084 -0.145292 -0.231270 0.184326 0.104089 0.131034 -0.304964 -0.153752 -0.111578 -0.061407 0.142485 -0.107496 0.121504 0.279131 0.089555 0.250345 -0.163912 0.302701 0.247129 -0.059022 0.094703 -0.186942 -0.066253 0.236537 -0.087457 -0.012559 -0.211868 0.371683 -0.143927 -0.401171 -0.320663 0.244769 0.034058 0.063417 0.016550 0.050170 -0.208957 -0.285205 0.163642 -0.092886 0.017451 0.429934 0.242808 -0.165467 0.237541 -0.130274 -0.134711
hacer -0.002681 -0.223605 -0.237927 0.576308 -0.157919 -0.242211 0.177856 0.088525 0.144653 -0.299498 -0.164490 -0.116116 -0.065763 0.138148 -0.098416 0.128916 0.296662 0.079086 0.251166 -0.171096 0.299225 0.255953 -0.041188 0.085187 -0.183454 -0.062510 0.247012 -0.089711 -0.008067 -0.215354 0.389362 -0.130167 -0.404999 -0.333671 0.249778 0.040028 0.053909 0.026297 0.050750 -0.213577 -0.296769 0.163980 -0.080136 0.021973 0.450834 0.234018 -0.159840 0.231467 -0.137626 -0.153698
hubiera -0.007413 -0.211013 -0.217533 0.530693 -0.140219 -0.230668 0.172970 0.098257 0.131384 -0.272581 -0.147794 -0.121368 -0.050519 0.126819 -0.097050 0.119160 0.279775 0.086136 0.238203 -0.159621 0.274727 0.232903 -0.050301 0.085331 -0.168332 -0.068264 0.224040 -0.084099 0.004565 -0.205856 0.353353 -0.133952 -0.379223 -0.311427 0.243084 0.049373 0.059570 0.020707 0.046669 -0.200017 -0.271371 0.153565 -0.073649 0.007395 0.421345 0.237614 -0.148174 0.214440 -0.122440 -0.128044
crack 0.009949 -0.245325 -0.234019 0.587878 -0.152370 -0.256766 0.194287 0.092812 0.155734 -0.319320 -0.172827 -0.127941 -0.057205 0.139669 -0.103793 0.139647 0.305233 0.082617 0.254359 -0.185122 0.318430 0.261378 -0.047336 0.099541 -0.181378 -0.073821 0.246850 -0.082235 -0.015414 -0.224125 0.387271 -0.147728 -0.420046 -0.332542 0.252140 0.051601 0.058944 0.008267 0.060427 -0.223431 -0.297784 0.166350 -0.079624 0.023583 0.461483 0.249451 -0.173289 0.233488 -0.146680 -0.156829
jugadorxavihernández -0.001375 -0.303027 -0.297247 0.740611 -0.199619 -0.318718 0.245212 0.116114 0.183049 -0.399285 -0.218597 -0.158011 -0.067316 0.183201 -0.132134 0.179187 0.377748 0.112410 0.323687 -0.235639 0.383812 0.323381 -0.055381 0.109309 -0.238285 -0.073946 0.322151 -0.107818 -0.005114 -0.284650 0.490992 -0.179541 -0.522543 -0.416427 0.331449 0.047117 0.079773 0.023125 0.062249 -0.293815 -0.376829 0.208700 -0.121570 0.028627 0.582375 0.309236 -0.213301 0.309921 -0.173940 -0.180929
capote 0.005874 -0.154775 -0.160256 0.368726 -0.088428 -0.149942 0.127808 0.065497 0.095535 -0.186587 -0.109184 -0.083765 -0.037632 0.094225 -0.078861 0.086269 0.190559 0.065037 0.156807 -0.125136 0.198185 0.172512 -0.024626 0.048068 -0.119070 -0.033134 0.155437 -0.048394 -0.000453 -0.137010 0.251508 -0.097336 -0.257733 -0.206316 0.158297 0.034635 0.029167 0.007695 0.025762 -0.144750 -0.192861 0.099723 -0.046651 0.014345 0.294829 0.148532 -0.104304 0.154087 -0.084284 -0.095669
arbitro -0.000352 -0.201177 -0.198249 0.498442 -0.138226 -0.205077 0.151867 0.082552 0.116655 -0.266697 -0.140565 -0.111610 -0.042879 0.111942 -0.080974 0.114241 0.246366 0.074120 0.211894 -0.160342 0.253522 0.209041 -0.041921 0.077439 -0.162871 -0.054785 0.202444 -0.067921 -0.001242 -0.188016 0.338407 -0.117492 -0.354565 -0.286833 0.216627 0.036723 0.042930 0.023516 0.037903 -0.179732 -0.242974 0.128760 -0.065944 0.022701 0.388257 0.210961 -0.140014 0.199946 -0.121725 -0.115685
fútbol 0.002341 -0.284971 -0.289391 0.694234 -0.181602 -0.288673 0.226161 0.114259 0.171758 -0.365575 -0.191538 -0.145437 -0.062338 0.161930 -0.117563 0.158641 0.357945 0.096493 0.305105 -0.203746 0.370689 0.306445 -0.067218 0.108426 -0.216539 -0.082149 0.299737 -0.110569 -0.006689 -0.266955 0.448361 -0.169003 -0.488568 -0.389316 0.293444 0.048528 0.073102 0.017704 0.066030 -0.254389 -0.339606 0.185761 -0.098342 0.024869 0.540679 0.292784 -0.202203 0.278717 -0.160343 -0.179945
visto 0.000075 -0.250398 -0.251214 0.597891 -0.164600 -0.260515 0.198639 0.097363 0.151017 -0.311894 -0.171015 -0.124382 -0.054663 0.146333 -0.112259 0.134979 0.312960 0.085665 0.256916 -0.191223 0.306270 0.248911 -0.045239 0.095666 -0.183993 -0.062101 0.253475 -0.079447 -0.000508 -0.223993 0.395712 -0.149448 -0.425412 -0.337675 0.265539 0.047890 0.050441 0.013097 0.050527 -0.219688 -0.304617 0.173686 -0.082591 0.007786 0.457633 0.249771 -0.171766 0.254994 -0.144361 -0.143891
también 0.009557 -0.197456 -0.206833 0.515772 -0.137024 -0.225847 0.169372 0.088063 0.119697 -0.274888 -0.155654 -0.102439 -0.054036 0.134185 -0.093733 0.126767 0.267246 0.071851 0.238109 -0.149999 0.263412 0.232192 -0.043670 0.079572 -0.165015 -0.064957 0.225563 -0.072014 -0.006229 -0.204374 0.333211 -0.124533 -0.355485 -0.292560 0.233017 0.032897 0.040836 0.018583 0.038698 -0.201268 -0.255059 0.138996 -0.078091 0.017595 0.387898 0.216078 -0.147384 0.219166 -0.131253 -0.122397
perder 0.003492 -0.198521 -0.211064 0.498058 -0.125112 -0.209397 0.166835 0.089342 0.123127 -0.271720 -0.146997 -0.111705 -0.044097 0.128965 -0.098972 0.109192 0.254267 0.078075 0.218051 -0.162166 0.271091 0.213255 -0.039249 0.081986 -0.153090 -0.061780 0.210135 -0.067577 -0.006467 -0.196707 0.343555 -0.115337 -0.352577 -0.287047 0.219002 0.047859 0.046315 0.009037 0.045166 -0.182637 -0.242427 0.130952 -0.074487 0.023016 0.389543 0.214575 -0.139907 0.216100 -0.125606 -0.128112
somos -0.000028 -0.138684 -0.155306 0.370107 -0.089758 -0.165260 0.122329 0.060519 0.095686 -0.201425 -0.102553 -0.079043 -0.041569 0.091163 -0.060662 0.082603 0.196405 0.047592 0.170589 -0.121913 0.199711 0.150217 -0.037456 0.050636 -0.116065 -0.035180 0.149012 -0.053347 -0.012977 -0.139508 0.248496 -0.082217 -0.253620 -0.204065 0.163967 0.026754 0.032064 0.016694 0.040831 -0.141017 -0.185744 0.097927 -0.054359 0.002439 0.278534 0.163918 -0.102803 0.146877 -0.078730 -0.084378
mejores 0.002339 -0.162255 -0.163940 0.406298 -0.104763 -0.175436 0.127482 0.062319 0.098589 -0.217657 -0.125676 -0.090830 -0.046165 0.105235 -0.080174 0.092512 0.211787 0.051557 0.187156 -0.132367 0.212123 0.177238 -0.032308 0.070288 -0.136985 -0.046499 0.167042 -0.065733 0.005287 -0.149609 0.272432 -0.089255 -0.280281 -0.223966 0.169940 0.035883 0.042109 0.020059 0.030195 -0.154148 -0.199157 0.112557 -0.051670 0.001759 0.320857 0.179501 -0.108509 0.168600 -0.094581 -0.101152
jugadores 0.009842 -0.205225 -0.208380 0.539738 -0.148500 -0.232168 0.177754 0.085232 0.127587 -0.272388 -0.149656 -0.118066 -0.048052 0.121532 -0.103699 0.113722 0.267427 0.078313 0.239123 -0.158683 0.276088 0.240013 -0.047643 0.076799 -0.175311 -0.049866 0.225000 -0.070073 -0.010095 -0.203156 0.356699 -0.122054 -0.372483 -0.301096 0.234549 0.050157 0.051317 0.011325 0.043172 -0.212319 -0.262866 0.144132 -0.089083 0.004365 0.403476 0.235636 -0.157251 0.220498 -0.125809 -0.134562
millones 0.004475 -0.191368 -0.187375 0.476139 -0.125347 -0.191392 0.158641 0.079372 0.122075 -0.247535 -0.143458 -0.093238 -0.057370 0.121640 -0.094848 0.110842 0.233587 0.065342 0.216568 -0.139730 0.244620 0.206976 -0.032183 0.081510 -0.152738 -0.057149 0.199683 -0.062749 -0.001278 -0.186241 0.317470 -0.110260 -0.338833 -0.259592 0.198006 0.033752 0.048536 0.021073 0.042692 -0.188042 -0.226716 0.129027 -0.067177 0.015685 0.369098 0.202671 -0.140638 0.192509 -0.114549 -0.125915
claro 0.003009 -0.151331 -0.147176 0.360822 -0.096290 -0.157221 0.113727 0.060745 0.087080 -0.198360 -0.104148 -0.083818 -0.039799 0.088690 -0.061816 0.085223 0.177816 0.046881 0.169455 -0.118574 0.198052 0.167087 -0.037918 0.054706 -0.116120 -0.038009 0.158855 -0.053790 0.004737 -0.136975 0.253301 -0.081564 -0.262993 -0.214438 0.165532 0.029647 0.041049 0.016102 0.029513 -0.130369 -0.182914 0.104231 -0.061559 0.014324 0.282218 0.158155 -0.099705 0.149567 -0.093421 -0.088059
nunca -0.007908 -0.194902 -0.197158 0.504120 -0.123453 -0.207522 0.163839 0.087063 0.132588 -0.256057 -0.145872 -0.115297 -0.057292 0.126920 -0.090112 0.124681 0.252642 0.081463 0.222742 -0.151611 0.269280 0.219179 -0.047669 0.069910 -0.154380 -0.053945 0.219475 -0.080789 -0.008236 -0.194111 0.340646 -0.130043 -0.348521 -0.294165 0.213244 0.029839 0.041152 0.024136 0.042696 -0.192964 -0.250839 0.133315 -0.077482 0.006607 0.395345 0.222200 -0.147491 0.210292 -0.124471 -0.122817
jugadorcescfábregas 0.005803 -0.204398 -0.218116 0.526343 -0.140974 -0.237713 0.168717 0.083196 0.135492 -0.274130 -0.154909 -0.116104 -0.053442 0.132816 -0.089421 0.117588 0.263857 0.072676 0.231751 -0.172123 0.274780 0.234161 -0.051686 0.090770 -0.182355 -0.054840 0.232834 -0.087953 0.000895 -0.214264 0.355487 -0.134582 -0.373344 -0.313411 0.229724 0.034282 0.046726 0.023848 0.043621 -0.206394 -0.277014 0.137210 -0.078460 0.018357 0.406040 0.235645 -0.141195 0.230638 -0.136733 -0.142780
estoy 0.010835 -0.182408 -0.186792 0.442537 -0.109983 -0.187457 0.140467 0.064006 0.100874 -0.227007 -0.137022 -0.096703 -0.037654 0.110901 -0.078746 0.103342 0.234077 0.060871 0.186239 -0.128213 0.226742 0.192771 -0.037896 0.065380 -0.144063 -0.047041 0.181043 -0.062087 -0.013370 -0.176488 0.291116 -0.103863 -0.305483 -0.254465 0.200433 0.029445 0.047019 0.004842 0.033752 -0.162567 -0.212885 0.115619 -0.068142 0.016530 0.337111 0.183734 -0.117301 0.184671 -0.107729 -0.113976
soy -0.002911 -0.229279 -0.233377 0.550598 -0.157028 -0.231751 0.169190 0.085209 0.144039 -0.301841 -0.155163 -0.129133 -0.047165 0.138230 -0.104228 0.131236 0.287782 0.077214 0.253147 -0.164709 0.299774 0.233637 -0.040191 0.082625 -0.180431 -0.058718 0.227784 -0.078296 -0.012516 -0.207447 0.372633 -0.130178 -0.403899 -0.311376 0.237167 0.043348 0.060727 0.022968 0.058012 -0.217250 -0.274368 0.161764 -0.076106 0.005610 0.439520 0.233558 -0.158792 0.221216 -0.138346 -0.134287
tener -0.008467 -0.192122 -0.197117 0.466468 -0.116578 -0.191377 0.148906 0.071675 0.117759 -0.255416 -0.146141 -0.100265 -0.056731 0.106569 -0.080478 0.114350 0.233275 0.073547 0.219812 -0.148601 0.257706 0.212345 -0.035778 0.070987 -0.158049 -0.055413 0.205745 -0.078051 -0.006490 -0.177901 0.313411 -0.108048 -0.339930 -0.266643 0.205104 0.042447 0.051619 0.012376 0.045679 -0.181589 -0.244895 0.138031 -0.064616 0.004310 0.361473 0.207149 -0.140216 0.185847 -0.121924 -0.129328
hizo -0.004999 -0.173968 -0.174438 0.415646 -0.106565 -0.181991 0.138727 0.073056 0.091095 -0.208920 -0.118281 -0.081219 -0.038982 0.105791 -0.077076 0.085871 0.209641 0.069434 0.187225 -0.119596 0.213628 0.181093 -0.027925 0.066078 -0.130029 -0.037877 0.179835 -0.062526 -0.009288 -0.156974 0.278249 -0.099107 -0.278530 -0.228482 0.177553 0.036945 0.047613 0.021610 0.040297 -0.156770 -0.206189 0.113108 -0.069993 0.011059 0.325235 0.183115 -0.116740 0.168212 -0.090803 -0.095902
pena -0.007160 -0.194992 -0.212836 0.491734 -0.128872 -0.204575 0.163991 0.089937 0.125330 -0.273746 -0.138861 -0.110636 -0.047942 0.119979 -0.100387 0.107027 0.263676 0.083567 0.224957 -0.153818 0.255199 0.223178 -0.040230 0.065914 -0.170037 -0.056395 0.213940 -0.077460 -0.000651 -0.197500 0.342452 -0.126835 -0.358438 -0.275987 0.214037 0.029807 0.051767 0.014784 0.047293 -0.189669 -0.246117 0.137601 -0.084173 0.006772 0.389261 0.215586 -0.136590 0.197712 -0.111846 -0.136497
pierde -0.003879 -0.173064 -0.167067 0.424347 -0.110589 -0.183804 0.127745 0.063204 0.099903 -0.215965 -0.125962 -0.093538 -0.051183 0.111636 -0.080953 0.102138 0.213505 0.067032 0.182742 -0.132015 0.216824 0.191033 -0.028001 0.071825 -0.127417 -0.048765 0.183306 -0.063931 -0.001953 -0.165840 0.279660 -0.105128 -0.289456 -0.233854 0.193768 0.033536 0.033999 0.012810 0.032063 -0.155885 -0.206123 0.125338 -0.055879 0.010796 0.318301 0.174200 -0.128029 0.167849 -0.098660 -0.098418
jugadordanicarvajal 0.004823 -0.191947 -0.203423 0.486474 -0.123863 -0.211896 0.161303 0.083162 0.124221 -0.262245 -0.137070 -0.115459 -0.055574 0.127211 -0.080825 0.111061 0.252571 0.065326 0.225457 -0.153815 0.249403 0.203633 -0.045011 0.076793 -0.161567 -0.047481 0.196382 -0.071907 -0.004271 -0.193816 0.317716 -0.117750 -0.335642 -0.283137 0.215949 0.028307 0.045290 0.018752 0.046674 -0.190321 -0.237406 0.135369 -0.076136 0.006008 0.378248 0.205747 -0.145675 0.192031 -0.111859 -0.129641
eh -0.005058 -0.107629 -0.117933 0.274672 -0.065404 -0.122997 0.087107 0.044123 0.062150 -0.138519 -0.086327 -0.067879 -0.028291 0.062945 -0.053592 0.063697 0.147467 0.031776 0.121568 -0.079220 0.148398 0.111871 -0.032179 0.046950 -0.086158 -0.031981 0.119424 -0.045221 -0.000059 -0.098149 0.183861 -0.057556 -0.195143 -0.157252 0.131392 0.018731 0.026183 0.002516 0.030605 -0.106415 -0.138033 0.079345 -0.043647 0.016419 0.209819 0.117979 -0.073696 0.122134 -0.069263 -0.080976
gano -0.008655 -0.133581 -0.141651 0.350444 -0.093349 -0.151928 0.111390 0.062594 0.081056 -0.177276 -0.099051 -0.075552 -0.044214 0.080627 -0.069524 0.073866 0.168638 0.056040 0.156192 -0.097769 0.187377 0.137962 -0.024616 0.042996 -0.111287 -0.047252 0.149459 -0.052640 -0.011996 -0.127358 0.229572 -0.078910 -0.231927 -0.202916 0.155151 0.027478 0.039473 0.002892 0.030973 -0.122943 -0.170982 0.095475 -0.061228 0.009231 0.259561 0.150142 -0.095642 0.133347 -0.083279 -0.091887
están 0.003380 -0.180018 -0.184748 0.458972 -0.123440 -0.185991 0.152696 0.077384 0.120203 -0.240638 -0.130315 -0.094674 -0.046016 0.115285 -0.081154 0.109991 0.233146 0.064027 0.201097 -0.131424 0.240750 0.190879 -0.036911 0.075685 -0.149512 -0.058907 0.186261 -0.062768 0.002068 -0.173574 0.311067 -0.100483 -0.312101 -0.252232 0.197419 0.037860 0.042497 0.016765 0.034063 -0.178767 -0.235572 0.125948 -0.074183 0.012473 0.350505 0.192662 -0.131797 0.190159 -0.105107 -0.116063
jugadorcarlespuyol -0.004614 -0.183108 -0.187120 0.476545 -0.125132 -0.206441 0.155818 0.084945 0.121344 -0.251456 -0.129815 -0.106261 -0.044654 0.118477 -0.085326 0.108804 0.246136 0.076877 0.202106 -0.140278 0.242699 0.207037 -0.032175 0.075613 -0.153719 -0.044968 0.194027 -0.072110 -0.007727 -0.178807 0.304114 -0.108862 -0.340590 -0.267334 0.215331 0.030560 0.041355 0.005516 0.046353 -0.175602 -0.229563 0.123548 -0.065422 0.014514 0.365789 0.202029 -0.121759 0.194937 -0.114642 -0.121435
visca -0.006880 -0.142964 -0.148633 0.341116 -0.096464 -0.156938 0.115933 0.064322 0.091422 -0.177253 -0.096418 -0.066604 -0.029017 0.086699 -0.072987 0.083609 0.170028 0.046975 0.152827 -0.110517 0.190491 0.154260 -0.020293 0.059398 -0.119889 -0.029602 0.144832 -0.053977 -0.002186 -0.133243 0.235264 -0.093126 -0.237798 -0.196471 0.154779 0.031775 0.042182 0.015126 0.042159 -0.129888 -0.175899 0.095950 -0.045379 0.011247 0.281300 0.160729 -0.098075 0.135965 -0.085621 -0.086182
van 0.000809 -0.174454 -0.188158 0.448151 -0.115998 -0.198342 0.138601 0.084899 0.115751 -0.238834 -0.121762 -0.094441 -0.054296 0.109868 -0.084899 0.100525 0.235806 0.076465 0.192603 -0.134120 0.233422 0.195867 -0.043510 0.071445 -0.154162 -0.057959 0.180455 -0.062244 0.002291 -0.177690 0.307054 -0.099384 -0.323153 -0.253651 0.201709 0.036304 0.049787 0.005330 0.047859 -0.178616 -0.217067 0.122750 -0.065558 0.005329 0.356364 0.198699 -0.126398 0.180394 -0.113816 -0.115171
grandes 0.000675 -0.181918 -0.170137 0.442023 -0.110134 -0.194624 0.152101 0.074669 0.118090 -0.223265 -0.133642 -0.089687 -0.043772 0.106310 -0.077752 0.099560 0.227244 0.072593 0.196665 -0.131948 0.228402 0.189296 -0.037351 0.058973 -0.147308 -0.052658 0.186936 -0.057502 -0.005820 -0.174400 0.296746 -0.108578 -0.320567 -0.248696 0.194667 0.040845 0.053632 0.022487 0.045820 -0.168360 -0.225820 0.122157 -0.065302 0.003314 0.346314 0.192646 -0.132645 0.190099 -0.111536 -0.106938
buen 0.007443 -0.155749 -0.152583 0.376665 -0.097005 -0.162827 0.117888 0.064222 0.094072 -0.189767 -0.105560 -0.074841 -0.029067 0.088022 -0.060367 0.076305 0.190575 0.051954 0.168675 -0.122684 0.192092 0.151896 -0.036896 0.048297 -0.115096 -0.034958 0.147911 -0.061168 0.005115 -0.146152 0.254522 -0.097414 -0.254821 -0.217882 0.170223 0.037143 0.026854 0.012140 0.042288 -0.147623 -0.190027 0.099353 -0.048615 0.006809 0.291032 0.157501 -0.095409 0.161877 -0.090493 -0.094880
cosas 0.008262 -0.169255 -0.179320 0.434235 -0.115662 -0.182924 0.142270 0.078873 0.096476 -0.233391 -0.118242 -0.092907 -0.040419 0.099853 -0.088443 0.102125 0.218859 0.056614 0.188819 -0.135122 0.229807 0.189064 -0.040236 0.068967 -0.139668 -0.043181 0.177314 -0.063928 -0.007892 -0.163714 0.284825 -0.100017 -0.298854 -0.237999 0.187361 0.029281 0.041571 0.015865 0.033646 -0.164454 -0.217143 0.109280 -0.073599 0.005247 0.340968 0.181807 -0.117571 0.173908 -0.109985 -0.100467
cojones 0.001311 -0.186503 -0.199828 0.478489 -0.123621 -0.209003 0.145650 0.080232 0.109494 -0.246937 -0.132475 -0.098219 -0.043791 0.111328 -0.082667 0.117014 0.239698 0.076900 0.215672 -0.147876 0.252456 0.205172 -0.031612 0.078662 -0.148839 -0.051823 0.208284 -0.078260 -0.011915 -0.174471 0.315872 -0.119837 -0.335285 -0.258958 0.217310 0.027820 0.038889 0.006206 0.047053 -0.175301 -0.242936 0.136772 -0.077107 0.016903 0.356938 0.205250 -0.137359 0.199135 -0.118411 -0.120146
viva -0.007224 -0.154782 -0.157652 0.380924 -0.102169 -0.162572 0.115133 0.060611 0.090843 -0.202303 -0.118514 -0.080441 -0.035581 0.090397 -0.058240 0.089190 0.199876 0.048579 0.166419 -0.107054 0.201032 0.161332 -0.024728 0.047384 -0.127843 -0.051676 0.165546 -0.056031 -0.000634 -0.145657 0.242607 -0.090972 -0.259634 -0.202041 0.156290 0.030658 0.040170 0.009597 0.031171 -0.141912 -0.180528 0.101860 -0.047890 0.018602 0.290459 0.156194 -0.095008 0.148617 -0.094182 -0.088129
tira 0.001905 -0.117962 -0.138258 0.313951 -0.087600 -0.139062 0.094025 0.058130 0.091125 -0.167482 -0.096596 -0.070320 -0.035681 0.068488 -0.060499 0.080420 0.155197 0.049680 0.153307 -0.093306 0.169416 0.133480 -0.020046 0.036694 -0.107065 -0.032598 0.136500 -0.050066 0.004176 -0.119381 0.201679 -0.077597 -0.215592 -0.183055 0.136836 0.028988 0.029835 0.009329 0.032098 -0.123800 -0.164814 0.083338 -0.044321 0.012790 0.247912 0.143634 -0.094794 0.139382 -0.081541 -0.074083
ganamos 0.010254 -0.129082 -0.130035 0.306676 -0.090341 -0.139636 0.094253 0.058112 0.070405 -0.162449 -0.082234 -0.074795 -0.021883 0.079067 -0.054438 0.068505 0.160920 0.036851 0.137688 -0.096257 0.154994 0.143343 -0.021295 0.046085 -0.090593 -0.038341 0.137099 -0.054945 -0.009844 -0.108440 0.198726 -0.069894 -0.223265 -0.184173 0.134822 0.031307 0.031497 0.006626 0.031697 -0.116974 -0.147199 0.081143 -0.057200 0.015049 0.245960 0.125353 -0.088977 0.119271 -0.065856 -0.074007
sí 0.006770 -0.165139 -0.181415 0.421721 -0.110726 -0.188829 0.145748 0.076349 0.098123 -0.234687 -0.132361 -0.085445 -0.035689 0.095798 -0.077285 0.109296 0.218954 0.067198 0.200359 -0.133223 0.217876 0.182138 -0.043126 0.065823 -0.146181 -0.048930 0.189387 -0.070462 -0.006086 -0.173156 0.278118 -0.109131 -0.296868 -0.239989 0.191944 0.025930 0.038984 0.008152 0.039380 -0.172028 -0.219616 0.121048 -0.065335 0.008615 0.325114 0.193873 -0.118451 0.175858 -0.106611 -0.113221
puto -0.004640 -0.169253 -0.176918 0.430903 -0.123065 -0.191786 0.138227 0.065053 0.098141 -0.231080 -0.128626 -0.098892 -0.043336 0.107024 -0.071346 0.092862 0.214915 0.055242 0.192312 -0.124078 0.230613 0.191077 -0.043318 0.072144 -0.134612 -0.040389 0.182541 -0.056182 0.003436 -0.154240 0.280511 -0.109276 -0.307736 -0.243696 0.189189 0.041937 0.043164 0.002969 0.046279 -0.162366 -0.213630 0.112046 -0.068340 0.012888 0.327732 0.188141 -0.119598 0.166930 -0.111324 -0.117604
único 0.011981 -0.203714 -0.192961 0.485645 -0.124946 -0.210241 0.164588 0.071149 0.129701 -0.261310 -0.151136 -0.108355 -0.042925 0.114992 -0.078414 0.102976 0.251418 0.081562 0.209144 -0.156953 0.264617 0.212883 -0.046990 0.077587 -0.162463 -0.059747 0.198690 -0.076283 -0.006487 -0.193567 0.332387 -0.111304 -0.337790 -0.285479 0.219179 0.043426 0.057702 0.005380 0.054801 -0.182290 -0.248816 0.135372 -0.074549 0.015034 0.369034 0.202862 -0.127751 0.198777 -0.128121 -0.130403
hemos -0.000029 -0.145708 -0.144646 0.338413 -0.090934 -0.136095 0.113707 0.062082 0.092447 -0.172341 -0.097388 -0.080915 -0.042240 0.092599 -0.055235 0.083380 0.176840 0.049654 0.145066 -0.108675 0.174452 0.151001 -0.022059 0.054951 -0.118505 -0.034510 0.141191 -0.044991 -0.006562 -0.137025 0.232266 -0.086660 -0.250642 -0.205404 0.148447 0.035858 0.034114 0.002663 0.032607 -0.138826 -0.173792 0.089658 -0.062166 0.013276 0.265684 0.138694 -0.087120 0.130937 -0.090731 -0.086954
ganó -0.006024 -0.137379 -0.144177 0.349910 -0.085862 -0.142700 0.124624 0.061201 0.089894 -0.196495 -0.107183 -0.075048 -0.038138 0.093410 -0.061651 0.074522 0.173926 0.053702 0.166894 -0.117754 0.190952 0.161648 -0.034520 0.060458 -0.121387 -0.043714 0.152181 -0.059629 0.000537 -0.140531 0.238929 -0.093770 -0.241891 -0.199506 0.155918 0.022787 0.029953 0.006230 0.041328 -0.140148 -0.175129 0.092592 -0.048603 -0.000800 0.286801 0.161759 -0.109510 0.137788 -0.089996 -0.094821
jugadoralexissánchez 0.001011 -0.223140 -0.220390 0.542306 -0.146199 -0.223828 0.173073 0.081931 0.125005 -0.277392 -0.147668 -0.113355 -0.045164 0.136522 -0.100402 0.121780 0.277345 0.078844 0.233014 -0.172518 0.285017 0.235810 -0.047835 0.077206 -0.178448 -0.052964 0.225620 -0.076909 -0.009495 -0.206721 0.359312 -0.136808 -0.385537 -0.305400 0.233406 0.048996 0.048444 0.025302 0.054653 -0.206007 -0.275461 0.151683 -0.079428 0.008282 0.417497 0.234167 -0.141254 0.218225 -0.131916 -0.144846
será 0.000528 -0.143328 -0.153324 0.367958 -0.097045 -0.154374 0.127660 0.070014 0.099305 -0.186613 -0.112689 -0.088111 -0.039334 0.088022 -0.067790 0.077514 0.181072 0.064940 0.171000 -0.115028 0.201934 0.167762 -0.023130 0.049870 -0.119294 -0.039015 0.149834 -0.052021 -0.012819 -0.141761 0.252939 -0.087083 -0.273153 -0.220280 0.162181 0.027057 0.038416 0.008298 0.035426 -0.133880 -0.194607 0.101247 -0.059081 0.019091 0.291288 0.156887 -0.094526 0.151050 -0.096755 -0.087473
momento 0.002737 -0.091580 -0.083023 0.206866 -0.065509 -0.094027 0.074429 0.032711 0.058665 -0.106341 -0.056052 -0.050642 -0.028673 0.044507 -0.043730 0.044858 0.102948 0.028465 0.087812 -0.064164 0.106301 0.085803 -0.008927 0.042058 -0.078958 -0.015020 0.094786 -0.035200 0.001632 -0.079733 0.145217 -0.056666 -0.147731 -0.115526 0.089173 0.017409 0.024376 0.000417 0.017818 -0.091300 -0.106773 0.057420 -0.036339 0.015132 0.164993 0.102011 -0.058145 0.091520 -0.049235 -0.045025
vale -0.002494 -0.130228 -0.128398 0.322704 -0.094501 -0.142218 0.096805 0.057700 0.090511 -0.173720 -0.084186 -0.068372 -0.041617 0.078579 -0.059073 0.069644 0.164273 0.043051 0.142701 -0.108449 0.179668 0.150558 -0.026168 0.056562 -0.099028 -0.027844 0.136616 -0.051114 -0.004293 -0.130220 0.225325 -0.069101 -0.236692 -0.176478 0.141889 0.030715 0.041383 0.014929 0.022011 -0.120198 -0.165609 0.095753 -0.054885 0.011302 0.253953 0.131357 -0.083320 0.141630 -0.074321 -0.081430
haber -0.007783 -0.157303 -0.156108 0.388328 -0.110977 -0.162540 0.122709 0.071686 0.091380 -0.203957 -0.114991 -0.090933 -0.032987 0.092453 -0.064381 0.081715 0.202563 0.061059 0.164688 -0.114566 0.207931 0.162776 -0.035218 0.066812 -0.129668 -0.049432 0.156396 -0.066867 -0.000956 -0.148587 0.256980 -0.083796 -0.281906 -0.221946 0.160992 0.020432 0.040699 0.013147 0.033484 -0.142424 -0.193411 0.103574 -0.063665 0.019155 0.300276 0.175030 -0.111956 0.153204 -0.095832 -0.088471
sólo 0.008042 -0.162326 -0.152027 0.385562 -0.105274 -0.159517 0.134058 0.060940 0.101568 -0.202109 -0.121951 -0.089200 -0.043846 0.094800 -0.075292 0.090326 0.203329 0.048953 0.180444 -0.113591 0.195197 0.162824 -0.029014 0.051278 -0.126447 -0.050560 0.164500 -0.059426 -0.011450 -0.151594 0.258714 -0.088980 -0.282078 -0.217502 0.164242 0.037325 0.044831 0.001834 0.035672 -0.150317 -0.188697 0.103303 -0.059461 0.001836 0.294091 0.167997 -0.098274 0.162628 -0.084052 -0.095362
muerte 0.003516 -0.092024 -0.087446 0.227971 -0.068586 -0.098950 0.071424 0.037187 0.052036 -0.126751 -0.066646 -0.044489 -0.024251 0.065307 -0.034368 0.044854 0.119929 0.028273 0.096195 -0.068237 0.114207 0.101256 -0.010349 0.040806 -0.079920 -0.016998 0.092399 -0.034846 -0.010299 -0.086063 0.156479 -0.046948 -0.158857 -0.138348 0.104438 0.009324 0.029038 -0.000365 0.028999 -0.092911 -0.125121 0.070017 -0.030636 0.003452 0.169879 0.089727 -0.068431 0.092241 -0.064049 -0.055574
jugadorpepe -0.003804 -0.194404 -0.203625 0.500284 -0.132216 -0.206544 0.168216 0.082188 0.117928 -0.253579 -0.146024 -0.115607 -0.047096 0.122935 -0.089954 0.117178 0.247012 0.084646 0.224789 -0.162023 0.255637 0.223580 -0.043411 0.081534 -0.154280 -0.061747 0.213671 -0.071271 -0.004533 -0.185814 0.337809 -0.117889 -0.345863 -0.286581 0.213553 0.041033 0.044767 0.014573 0.045545 -0.191959 -0.256723 0.143613 -0.080560 0.022892 0.390318 0.212829 -0.143100 0.206279 -0.121956 -0.135185
goles 0.004488 -0.126422 -0.138656 0.315299 -0.075872 -0.134943 0.101627 0.043714 0.070922 -0.161662 -0.087776 -0.070267 -0.029354 0.077257 -0.053586 0.078883 0.153891 0.056166 0.137702 -0.101635 0.167394 0.141827 -0.029241 0.057426 -0.101145 -0.027402 0.137787 -0.050885 -0.013335 -0.120329 0.203320 -0.074033 -0.232110 -0.185544 0.139922 0.033749 0.038720 0.017158 0.039235 -0.127529 -0.168009 0.090537 -0.048658 -0.001530 0.254140 0.129916 -0.079768 0.123295 -0.081679 -0.087847
vida 0.006146 -0.148827 -0.145740 0.349699 -0.097590 -0.150097 0.110821 0.069433 0.081663 -0.193212 -0.097584 -0.070942 -0.045586 0.094886 -0.063426 0.082619 0.191051 0.057793 0.159569 -0.117518 0.197395 0.157665 -0.038607 0.057041 -0.124010 -0.039331 0.149499 -0.051403 -0.008323 -0.127996 0.245173 -0.094103 -0.245171 -0.199626 0.149334 0.028436 0.038564 0.017338 0.028478 -0.127440 -0.186288 0.089011 -0.058386 0.004741 0.272395 0.161095 -0.102324 0.147405 -0.091394 -0.098012
hijo 0.007734 -0.167707 -0.166178 0.409655 -0.108135 -0.168729 0.139618 0.072638 0.108126 -0.211014 -0.109244 -0.082918 -0.038671 0.096179 -0.073644 0.093013 0.216663 0.065664 0.180258 -0.118392 0.215030 0.182650 -0.040784 0.060305 -0.138456 -0.053866 0.176402 -0.057594 -0.007071 -0.154439 0.279062 -0.095674 -0.293506 -0.236784 0.172599 0.022079 0.046246 0.016654 0.045253 -0.155941 -0.201229 0.107744 -0.060010 0.017683 0.319638 0.177295 -0.117865 0.160755 -0.093772 -0.110585
buscando -0.000996 -0.135777 -0.125652 0.333531 -0.088453 -0.131437 0.097182 0.051364 0.081246 -0.181612 -0.104210 -0.062894 -0.031935 0.082716 -0.056521 0.079364 0.175766 0.047887 0.145941 -0.110669 0.171421 0.146610 -0.023311 0.044203 -0.111994 -0.036583 0.138179 -0.050005 -0.000837 -0.136080 0.211914 -0.075205 -0.229572 -0.178754 0.141413 0.026773 0.022643 0.015699 0.025560 -0.132523 -0.158453 0.084377 -0.054888 0.004299 0.264640 0.147417 -0.097858 0.137210 -0.081329 -0.088245
derrota 0.007360 -0.130094 -0.142275 0.342501 -0.090977 -0.133531 0.109409 0.051341 0.082263 -0.172620 -0.096795 -0.071361 -0.027927 0.087487 -0.066735 0.073727 0.170349 0.052277 0.148196 -0.107333 0.175161 0.147809 -0.030716 0.056475 -0.101922 -0.035366 0.147125 -0.054547 -0.003590 -0.135233 0.230833 -0.081836 -0.235486 -0.193280 0.152322 0.024872 0.038481 0.005177 0.023675 -0.129718 -0.166439 0.095262 -0.048380 0.005549 0.251681 0.136354 -0.095203 0.146515 -0.081011 -0.081985
perdió -0.007220 -0.139997 -0.152420 0.376211 -0.088987 -0.154670 0.123849 0.060514 0.092033 -0.195003 -0.110653 -0.074190 -0.032840 0.098429 -0.072391 0.080517 0.196071 0.063918 0.168951 -0.105098 0.201652 0.164514 -0.040678 0.046816 -0.128064 -0.049583 0.159463 -0.055183 -0.012346 -0.134357 0.247163 -0.079937 -0.263166 -0.204310 0.161433 0.036121 0.030657 0.007085 0.038056 -0.136866 -0.176889 0.097531 -0.051286 0.018580 0.292649 0.154840 -0.107478 0.157484 -0.093034 -0.090524
real -0.000674 -0.186301 -0.183951 0.477061 -0.122743 -0.203052 0.158155 0.074596 0.109200 -0.239197 -0.135578 -0.108553 -0.042568 0.118040 -0.081696 0.107614 0.238880 0.067244 0.203271 -0.139498 0.248603 0.202638 -0.047926 0.069213 -0.158882 -0.059735 0.191604 -0.061706 0.001120 -0.179840 0.309346 -0.112686 -0.322881 -0.275553 0.207548 0.045427 0.041469 0.006798 0.040541 -0.181528 -0.228290 0.121827 -0.073933 0.013400 0.366605 0.208125 -0.134517 0.196206 -0.109859 -0.111497
ah -0.002812 -0.118429 -0.134988 0.316556 -0.087537 -0.135010 0.109193 0.046319 0.074371 -0.172912 -0.099101 -0.073923 -0.025339 0.080198 -0.063282 0.072059 0.172160 0.041544 0.151932 -0.091873 0.174535 0.145096 -0.030622 0.050967 -0.102621 -0.035062 0.137825 -0.043279 -0.011694 -0.121990 0.206207 -0.068014 -0.224798 -0.180074 0.136235 0.023483 0.023512 0.011224 0.035212 -0.126664 -0.163377 0.093359 -0.054853 0.004650 0.239487 0.140878 -0.095650 0.122664 -0.068835 -0.084858
dar -0.006440 -0.132784 -0.131422 0.345730 -0.097175 -0.151115 0.110348 0.063233 0.075252 -0.177977 -0.100673 -0.077179 -0.043087 0.083305 -0.063318 0.084230 0.165694 0.057384 0.144417 -0.110995 0.180445 0.147660 -0.026166 0.053771 -0.105625 -0.039107 0.144602 -0.044569 -0.011831 -0.132160 0.233729 -0.076130 -0.232541 -0.199949 0.150990 0.030420 0.037257 0.005456 0.023099 -0.127170 -0.176236 0.098276 -0.049120 0.000086 0.262244 0.151786 -0.097502 0.130793 -0.074909 -0.080092
mestalla -0.001061 -0.157129 -0.155280 0.361205 -0.096725 -0.165130 0.112541 0.055099 0.097783 -0.190663 -0.116973 -0.089079 -0.039550 0.100396 -0.068567 0.091262 0.183939 0.061156 0.163503 -0.121812 0.190586 0.167795 -0.028788 0.052162 -0.120280 -0.040179 0.159228 -0.049977 -0.001465 -0.146772 0.244795 -0.084318 -0.266447 -0.203876 0.171294 0.025451 0.036129 0.008680 0.024400 -0.148532 -0.189944 0.110088 -0.064344 0.000963 0.282183 0.169599 -0.113654 0.160704 -0.093079 -0.088609
dado -0.007207 -0.174201 -0.184251 0.461296 -0.115462 -0.193425 0.155773 0.070472 0.103507 -0.230504 -0.139021 -0.100304 -0.039222 0.120943 -0.087195 0.115149 0.237731 0.071440 0.204852 -0.150243 0.232987 0.196823 -0.038546 0.069729 -0.140452 -0.046390 0.195826 -0.075348 -0.009599 -0.164867 0.305102 -0.101552 -0.314384 -0.263142 0.204688 0.027102 0.040038 0.009254 0.037594 -0.166577 -0.228761 0.135070 -0.063563 0.016545 0.360924 0.198384 -0.122263 0.188872 -0.104613 -0.121768
lleva 0.009680 -0.202674 -0.200535 0.489967 -0.135949 -0.212833 0.149875 0.074975 0.115549 -0.253979 -0.152759 -0.116984 -0.046450 0.120490 -0.088657 0.105633 0.245659 0.068371 0.220235 -0.144904 0.252829 0.209525 -0.052188 0.074569 -0.152352 -0.055259 0.203277 -0.075228 -0.008376 -0.190887 0.329816 -0.119484 -0.359423 -0.277936 0.217951 0.037901 0.044143 0.012079 0.054611 -0.192839 -0.253596 0.131468 -0.070182 0.005473 0.393181 0.220817 -0.136616 0.198520 -0.119824 -0.129743
sos -0.000255 -0.133499 -0.136390 0.342122 -0.094335 -0.140471 0.109909 0.058134 0.093816 -0.168428 -0.090410 -0.065871 -0.035020 0.092514 -0.055604 0.076995 0.167628 0.059421 0.139952 -0.094759 0.177904 0.149791 -0.034955 0.052864 -0.109228 -0.039998 0.146929 -0.040701 -0.006869 -0.133051 0.220187 -0.080895 -0.238556 -0.199876 0.148458 0.029174 0.029281 0.008949 0.027454 -0.130117 -0.160814 0.084552 -0.059389 0.018195 0.269175 0.153161 -0.101263 0.133230 -0.076268 -0.085612
estan 0.001937 -0.123850 -0.120128 0.294766 -0.090467 -0.128203 0.107764 0.049900 0.083239 -0.154593 -0.096249 -0.069444 -0.020476 0.068180 -0.061283 0.063843 0.146390 0.045264 0.126042 -0.097690 0.155039 0.131086 -0.016823 0.054098 -0.092335 -0.037472 0.129440 -0.048136 -0.007178 -0.110599 0.202293 -0.071080 -0.214013 -0.173777 0.130495 0.032216 0.032483 0.013574 0.031511 -0.114597 -0.150634 0.074991 -0.045636 0.017177 0.231721 0.136763 -0.084649 0.132221 -0.079776 -0.074470
i 0.001803 -0.123362 -0.120431 0.278698 -0.081564 -0.124768 0.094984 0.051046 0.069798 -0.149056 -0.076216 -0.056743 -0.026904 0.075844 -0.062140 0.069662 0.148556 0.053699 0.129543 -0.086391 0.154105 0.123065 -0.018743 0.042298 -0.084102 -0.031264 0.111675 -0.041336 0.003582 -0.117157 0.194351 -0.066864 -0.195254 -0.169440 0.120731 0.029181 0.038471 0.009963 0.033802 -0.100537 -0.148982 0.076957 -0.034126 0.013678 0.214135 0.128672 -0.078106 0.109800 -0.076480 -0.079751
jugó -0.003042 -0.097218 -0.097395 0.251874 -0.065553 -0.120563 0.091590 0.037403 0.063279 -0.147921 -0.074650 -0.057718 -0.019360 0.058946 -0.041192 0.050898 0.135402 0.030582 0.118603 -0.078719 0.140284 0.109328 -0.029871 0.043720 -0.080414 -0.036948 0.107606 -0.033730 -0.013001 -0.104647 0.180457 -0.052537 -0.180537 -0.144610 0.106675 0.013568 0.031931 0.004746 0.016614 -0.108155 -0.136986 0.071294 -0.043484 0.006038 0.212537 0.104842 -0.082804 0.117362 -0.057693 -0.062962
espero 0.006814 -0.151248 -0.146297 0.359788 -0.093388 -0.158974 0.110193 0.055710 0.096250 -0.188885 -0.094689 -0.085749 -0.043346 0.090395 -0.071616 0.090258 0.181086 0.044246 0.152922 -0.107242 0.189645 0.161559 -0.033399 0.048779 -0.110254 -0.047486 0.144870 -0.045183 0.005861 -0.143892 0.240045 -0.085960 -0.256128 -0.198678 0.166264 0.028006 0.037959 0.008338 0.040298 -0.140325 -0.186151 0.092851 -0.044293 0.002072 0.281708 0.145992 -0.103873 0.138165 -0.077866 -0.100082
debe 0.003447 -0.182319 -0.190102 0.468779 -0.134350 -0.200384 0.143516 0.084255 0.127284 -0.237785 -0.136994 -0.092319 -0.047290 0.109697 -0.082904 0.104704 0.236803 0.063620 0.207811 -0.153074 0.245482 0.196106 -0.040704 0.062707 -0.159701 -0.051263 0.193276 -0.071183 -0.009636 -0.177931 0.323318 -0.105931 -0.335654 -0.273048 0.207914 0.042017 0.044498 0.012002 0.042231 -0.172136 -0.243278 0.125188 -0.072614 0.020835 0.360206 0.198917 -0.126787 0.199075 -0.112365 -0.123626
himno -0.003418 -0.193642 -0.182604 0.470201 -0.115384 -0.196259 0.154851 0.087236 0.105615 -0.240463 -0.130100 -0.106922 -0.044494 0.109751 -0.077185 0.116262 0.237471 0.065662 0.213155 -0.132309 0.252999 0.194821 -0.048946 0.060864 -0.153809 -0.042588 0.198484 -0.068017 -0.004268 -0.184534 0.305732 -0.110139 -0.337665 -0.272836 0.212249 0.037302 0.036557 0.024413 0.052604 -0.176710 -0.234091 0.129772 -0.076878 0.010640 0.368740 0.205852 -0.133799 0.195428 -0.109446 -0.126110
cierto 0.005481 -0.154495 -0.165558 0.375656 -0.100638 -0.172430 0.124361 0.058344 0.088454 -0.208385 -0.111551 -0.074633 -0.036512 0.096661 -0.071341 0.083846 0.188176 0.065265 0.163748 -0.118805 0.203547 0.167068 -0.036519 0.056246 -0.117894 -0.043752 0.153990 -0.055605 -0.001715 -0.148569 0.252212 -0.087581 -0.278024 -0.213414 0.175865 0.028273 0.031034 0.017753 0.033614 -0.141712 -0.199084 0.115040 -0.064798 0.012000 0.297802 0.165872 -0.098059 0.157611 -0.098354 -0.095871
quedo -0.002474 -0.141830 -0.136305 0.368229 -0.087211 -0.158493 0.121239 0.069077 0.083173 -0.187854 -0.106262 -0.071693 -0.035731 0.091308 -0.059300 0.087061 0.174111 0.052273 0.154639 -0.109794 0.181654 0.157844 -0.030029 0.052159 -0.110037 -0.049593 0.146857 -0.051351 -0.007822 -0.139112 0.238222 -0.090612 -0.258652 -0.204403 0.151711 0.032895 0.043178 0.015865 0.032928 -0.141152 -0.176827 0.104692 -0.056268 0.001916 0.269174 0.158308 -0.097043 0.141501 -0.088869 -0.092972
contra 0.009724 -0.192458 -0.193767 0.492613 -0.139287 -0.215288 0.157775 0.084511 0.130040 -0.263466 -0.144759 -0.110301 -0.050945 0.124414 -0.099279 0.122891 0.259867 0.083235 0.214005 -0.148741 0.265859 0.213094 -0.041126 0.073291 -0.158750 -0.057622 0.209100 -0.082610 -0.006810 -0.180532 0.329545 -0.121711 -0.350055 -0.280441 0.220753 0.028432 0.048484 0.005345 0.036706 -0.180251 -0.238996 0.140600 -0.080855 0.016865 0.377124 0.207484 -0.147518 0.201408 -0.129254 -0.132796
he -0.004833 -0.148729 -0.154347 0.365636 -0.101071 -0.158878 0.114482 0.069320 0.083636 -0.185996 -0.098039 -0.086052 -0.028056 0.099649 -0.068654 0.076248 0.198988 0.063730 0.172120 -0.114471 0.187677 0.157455 -0.033218 0.063910 -0.127973 -0.051728 0.156773 -0.051675 -0.006980 -0.144956 0.240040 -0.094885 -0.253193 -0.220172 0.169696 0.031647 0.026476 0.000911 0.044070 -0.136751 -0.182320 0.103003 -0.052695 0.018145 0.283899 0.164217 -0.098316 0.152782 -0.082375 -0.087272
dice 0.002527 -0.118283 -0.118013 0.301936 -0.070870 -0.131005 0.094251 0.040521 0.073404 -0.151978 -0.082017 -0.063309 -0.030273 0.076823 -0.059448 0.076113 0.149205 0.035741 0.128551 -0.083690 0.158665 0.118499 -0.032465 0.037388 -0.086711 -0.040191 0.123329 -0.047812 -0.004802 -0.119090 0.198963 -0.077832 -0.215888 -0.163397 0.129875 0.030134 0.030628 0.015175 0.035403 -0.103165 -0.154982 0.084173 -0.040000 0.009103 0.234526 0.127612 -0.084264 0.126762 -0.067779 -0.079040
caiga 0.006707 -0.060772 -0.071766 0.171567 -0.052723 -0.073209 0.046764 0.035960 0.038203 -0.080736 -0.054812 -0.039541 -0.027207 0.042205 -0.032806 0.044312 0.083934 0.019406 0.078738 -0.052362 0.081741 0.082551 -0.021671 0.022352 -0.060019 -0.018303 0.070388 -0.026061 0.001039 -0.057217 0.108329 -0.047745 -0.128504 -0.093170 0.074907 0.013124 0.013017 0.009407 0.008175 -0.066178 -0.088097 0.053383 -0.024516 0.012406 0.127158 0.070069 -0.054631 0.076254 -0.036135 -0.039150
primer -0.000055 -0.220138 -0.211738 0.544362 -0.147813 -0.226529 0.168983 0.091337 0.137840 -0.275864 -0.161500 -0.116347 -0.049649 0.143191 -0.104030 0.135160 0.279963 0.082664 0.246099 -0.165678 0.288378 0.230941 -0.042846 0.080816 -0.170431 -0.053575 0.221937 -0.089065 -0.010625 -0.206536 0.356609 -0.123776 -0.373681 -0.308090 0.246547 0.040075 0.061722 0.006437 0.056390 -0.214087 -0.279958 0.153808 -0.078250 0.021650 0.420354 0.223900 -0.156215 0.217762 -0.122301 -0.131637
jugar -0.005407 -0.159341 -0.160390 0.375560 -0.101707 -0.165155 0.133759 0.058860 0.100583 -0.203925 -0.107397 -0.078186 -0.039049 0.102966 -0.061625 0.095105 0.194412 0.061556 0.174589 -0.118289 0.210506 0.176900 -0.029116 0.067891 -0.115541 -0.041298 0.168320 -0.067356 0.004077 -0.155247 0.253258 -0.088270 -0.274519 -0.226173 0.175985 0.022226 0.032389 0.017567 0.029269 -0.137428 -0.198410 0.104344 -0.049302 0.004629 0.300133 0.164833 -0.100685 0.159410 -0.089372 -0.106856
haya -0.003649 -0.179350 -0.181837 0.473806 -0.128621 -0.205393 0.149777 0.087925 0.111870 -0.239921 -0.135595 -0.098898 -0.051230 0.110278 -0.075730 0.104032 0.232903 0.068384 0.203233 -0.141167 0.244181 0.195070 -0.046943 0.081519 -0.146955 -0.056059 0.205298 -0.078890 0.002444 -0.173913 0.314737 -0.114739 -0.331424 -0.262704 0.205794 0.036518 0.039227 0.013997 0.048827 -0.179299 -0.241880 0.137656 -0.080607 0.004312 0.368988 0.204652 -0.121572 0.197538 -0.106749 -0.118689
dios 0.009301 -0.138480 -0.141887 0.341277 -0.097809 -0.149916 0.110121 0.048384 0.089507 -0.167809 -0.091967 -0.081869 -0.031048 0.090757 -0.063821 0.078773 0.166829 0.052860 0.145066 -0.110032 0.181803 0.153929 -0.032020 0.048947 -0.101264 -0.037722 0.145682 -0.041727 0.001364 -0.133560 0.213730 -0.080316 -0.226737 -0.184778 0.152586 0.029065 0.025996 0.015928 0.031567 -0.129247 -0.167815 0.082359 -0.060204 0.017939 0.255530 0.152857 -0.103442 0.138731 -0.084540 -0.090421
toda -0.000905 -0.137697 -0.128749 0.339273 -0.086618 -0.146825 0.109744 0.061636 0.088623 -0.166949 -0.101685 -0.079411 -0.037695 0.080045 -0.071602 0.087712 0.174086 0.043869 0.141375 -0.109760 0.186995 0.138063 -0.021878 0.050600 -0.116374 -0.042123 0.133573 -0.052524 -0.009802 -0.123024 0.230298 -0.084702 -0.240298 -0.195061 0.141618 0.020627 0.031788 0.010144 0.026877 -0.128070 -0.167514 0.094719 -0.059087 0.018426 0.258473 0.141406 -0.085201 0.148117 -0.083662 -0.080373
merecido 0.003287 -0.192914 -0.190238 0.472076 -0.131426 -0.189792 0.148649 0.073130 0.123916 -0.250848 -0.144952 -0.107232 -0.046382 0.116659 -0.077733 0.116601 0.239426 0.070144 0.211453 -0.150171 0.252201 0.194796 -0.044159 0.063544 -0.154033 -0.052103 0.193551 -0.072533 -0.002044 -0.170110 0.309245 -0.105799 -0.325245 -0.268992 0.207423 0.034107 0.051410 0.018543 0.043687 -0.178135 -0.238283 0.133465 -0.077134 0.003651 0.357008 0.202021 -0.128974 0.191181 -0.119527 -0.125662
jugadorjesérodríguez -0.005613 -0.106006 -0.115329 0.289818 -0.083402 -0.125495 0.096285 0.046548 0.066686 -0.157997 -0.076588 -0.052332 -0.020809 0.062874 -0.046326 0.056185 0.139347 0.044961 0.121405 -0.078373 0.153363 0.117101 -0.018608 0.033356 -0.081757 -0.027357 0.111279 -0.041561 -0.006468 -0.115718 0.177738 -0.061687 -0.207682 -0.152389 0.133408 0.023474 0.029357 0.003999 0.020304 -0.104068 -0.137228 0.084928 -0.046539 0.009715 0.216380 0.120680 -0.081992 0.112323 -0.067787 -0.068279
peor -0.001268 -0.132877 -0.147143 0.348173 -0.095441 -0.147227 0.111807 0.057625 0.083450 -0.184812 -0.095214 -0.077805 -0.030671 0.086868 -0.065396 0.089105 0.188660 0.044886 0.152012 -0.107327 0.189903 0.161277 -0.035099 0.059224 -0.109640 -0.047785 0.150231 -0.046895 -0.009769 -0.131319 0.232019 -0.083665 -0.244056 -0.197457 0.162835 0.029747 0.034323 0.012652 0.031123 -0.137080 -0.175207 0.096886 -0.056315 0.009224 0.282112 0.153031 -0.094975 0.154295 -0.076823 -0.090302
has -0.001008 -0.137078 -0.149127 0.371984 -0.093935 -0.159535 0.121203 0.064212 0.082368 -0.181763 -0.100133 -0.069321 -0.041199 0.086140 -0.073395 0.083891 0.192888 0.059256 0.167998 -0.101969 0.180721 0.164842 -0.025216 0.057024 -0.116069 -0.039375 0.161373 -0.058947 -0.010337 -0.136267 0.238368 -0.085806 -0.257657 -0.199791 0.169168 0.031712 0.032606 0.010343 0.033543 -0.136526 -0.174253 0.093126 -0.054689 0.016025 0.291859 0.150311 -0.093013 0.146101 -0.086778 -0.093187
